0
0.01759275127407336
0.01759275127407336
0.01759275127407336
0.01759275127407336
0.01759275127407336
0.01759275127407336
0.01759275127407336
0.01759275127407336
0.01759275127407336
0.01759275127407336
0.01759275127407336
0.01759275127407336
0.01759275127407336
0.01759275127407336
0.01759275127407336
0.020950908059041897
0.020950908059041897
0.020950908059041897
0.020950908059041897
0.020950908059041897
0.020950908059041897
0.020950908059041897
0.020950908059041897
0.020950908059041897
0.020950908059041897
0.2592882532500601
0.020950908059041897
0.020950908059041897
0.020950908059041897
0.020950908059041897
0.020950908059041897
0.020950908059041897
0.020950908059041897
0.020950908059041897
0.020950908059041897
0.020950908059041897
0.020950908059041897
0.020950908059041897
0.020950908059041897
0.020950908059041897
0.020950908059041897
0.020950908059041897
0.020950908059041897
0.020950908059041897
0.020950908059041897
0.020950908059041897
0.020950908059041897
0.020950908059041897
0.020950908059041897
0.020950908059041897
0.020950908059041897
0.2592882532500601
0.020950908059041897
0.2592882532500601
0.020950908059041897
0.020950908059041897
0.2592882532500601
0.020950908059041897
0.020950908059041897
0.020950908059041897
0.020950908059041897
0.020950908059041897
0.020950908059041897
0.020950908059041897
0.020950908059041897
0.020950908059041897
0.020950908059041897
0.2592882532500601
0.2592882532500601
0.020950908059041897
0.2592882532500601
0.020950908059041897
0.020950908059041897
0.020950908059041897
0.020950908059041897
0.020950908059041897
0.020950908059041897
0.020950908059041897
0.2592882532500601
0.020950908059041897
0.2592882532500601
0.020950908059041897
0.2592882532500601
0.020950908059041897
0.020950908059041897
0.020950908059041897
0.020950908059041897
0.020950908059041897
0.020950908059041897
0.020950908059041897
0.020950908059041897
0.2592882532500601
0.020950908059041897
0.020950908059041897
0.020950908059041897
0.020950908059041897
0.020950908059041897
0.020950908059041897
0.020950908059041897
0.2592882532500601
0.2592882532500601
0.020950908059041897
0.020950908059041897
0.2592882532500601
0.020950908059041897
0.020950908059041897
0.020950908059041897
0.2592882532500601
0.2592882532500601
0.2592882532500601
0.2592882532500601
0.2592882532500601
0.2592882532500601
0.2592882532500601
0.2592882532500601
0.2592882532500601
0.2592882532500601
0.2592882532500601
0.020950908059041897
0.020950908059041897
0.2592882532500601
0.2592882532500601
0.2592882532500601
0.2592882532500601
0.2592882532500601
0.2592882532500601
0.020950908059041897
0.2592882532500601
0.2592882532500601
0.020950908059041897
0.020950908059041897
0.2592882532500601
0.2592882532500601
0.2592882532500601
0.2592882532500601
0.2592882532500601
0.020950908059041897
0.2592882532500601
0.2592882532500601
0.2592882532500601
0.2592882532500601
0.2592882532500601
0.2592882532500601
0.2592882532500601
0.2592882532500601
0.2592882532500601
0.2592882532500601
0.2592882532500601
0.2592882532500601
0.2592882532500601
0.2592882532500601
0.2592882532500601
0.016169679494132522
0.016169679494132522
0.2592882532500601
0.2592882532500601
0.2592882532500601
0.2592882532500601
0.2592882532500601
0.2592882532500601
0.2592882532500601
0.2592882532500601
0.2592882532500601
0.016169679494132522
0.2592882532500601
0.2592882532500601
0.016169679494132522
0.2592882532500601
0.2592882532500601
0.2592882532500601
0.2592882532500601
0.2592882532500601
0.2592882532500601
0.016169679494132522
0.2592882532500601
0.2592882532500601
0.2592882532500601
0.2592882532500601
0.2592882532500601
0.2592882532500601
0.2592882532500601
0.2592882532500601
0.2592882532500601
0.2592882532500601
0.016169679494132522
0.2592882532500601
0.2592882532500601
0.2592882532500601
0.016169679494132522
0.016169679494132522
0.016169679494132522
0.016169679494132522
0.016169679494132522
0.016169679494132522
0.2592882532500601
0.2592882532500601
0.016169679494132522
0.016169679494132522
0.016169679494132522
0.016169679494132522
0.2592882532500601
0.2592882532500601
0.016169679494132522
0.016169679494132522
0.2592882532500601
0.2592882532500601
0.2592882532500601
0.2592882532500601
0.2592882532500601
0.016169679494132522
0.016169679494132522
0.016169679494132522
0.016169679494132522
0.016169679494132522
0.016169679494132522
0.016169679494132522
0.016169679494132522
0.016169679494132522
0.016169679494132522
0.016169679494132522
0.016169679494132522
0.016169679494132522
0.016169679494132522
0.6731559164693859
0.016169679494132522
0.015237600051462845
0.015237600051462845
0.015237600051462845
0.015237600051462845
0.016169679494132522
0.016169679494132522
0.016169679494132522
0.016169679494132522
0.016169679494132522
0.016169679494132522
0.016169679494132522
0.016169679494132522
0.016169679494132522
0.016169679494132522
0.016169679494132522
0.016169679494132522
0.016169679494132522
0.016169679494132522
0.016169679494132522
0.016169679494132522
0.016169679494132522
0.016169679494132522
0.016169679494132522
0.016169679494132522
0.016169679494132522
2.3640387886830707
0.016169679494132522
0.016169679494132522
0.016169679494132522
-0.0010221378288302906
-0.0010221378288302906
0.016169679494132522
0.016169679494132522
0.016169679494132522
0.016169679494132522
0.016169679494132522
2.3640387886830707
2.3640387886830707
2.3640387886830707
2.3640387886830707
0.016169679494132522
0.016169679494132522
0.016169679494132522
0.016169679494132522
0.016169679494132522
0.016169679494132522
0.016169679494132522
0.016169679494132522
0.016169679494132522
0.016169679494132522
0.016169679494132522
0.016169679494132522
0.016169679494132522
0.016169679494132522
0.016169679494132522
0.016169679494132522
0.016169679494132522
0.016169679494132522
0.016169679494132522
0.015237600051462845
0.015237600051462845
0.015237600051462845
0.015237600051462845
2.3631067092404012
0.015237600051462845
0.015237600051462845
2.3631067092404012
0.015237600051462845
0.015237600051462845
0.015237600051462845
0.015237600051462845
0.015237600051462845
0.015237600051462845
0.015237600051462845
0.015237600051462845
0.015237600051462845
0.015237600051462845
0.015237600051462845
0.015237600051462845
0.015237600051462845
0.015237600051462845
0.015237600051462845
0.015237600051462845
0.015237600051462845
0.015237600051462845
0.015237600051462845
0.015237600051462845
0.015237600051462845
0.015237600051462845
0.015237600051462845
0.015237600051462845
0.015237600051462845
0.015237600051462845
0.015237600051462845
0.015237600051462845
0.015237600051462845
0.015237600051462845
0.015237600051462845
0.015237600051462845
0.015237600051462845
0.015237600051462845
0.015237600051462845
0.015237600051462845
0.015237600051462845
0.015237600051462845
0.015237600051462845
0.015237600051462845
0.015237600051462845
0.015237600051462845
0.015237600051462845
0.015237600051462845
0.015237600051462845
0.015237600051462845
0.015237600051462845
0.015237600051462845
0.015237600051462845
0.015237600051462845
0.015237600051462845
0.015237600051462845
0.015237600051462845
0.015237600051462845
0.015237600051462845
0.015237600051462845
0.015237600051462845
0.015237600051462845
0.015237600051462845
0.015237600051462845
0.015237600051462845
0.016169679494132522
0.016169679494132522
0.016169679494132522
0.016169679494132522
0.016169679494132522
0.016169679494132522
0.016169679494132522
0.016169679494132522
0.43003734271345845
0.43003734271345845
0.43003734271345845
0.016169679494132522
0.016169679494132522
0.016169679494132522
0.016169679494132522
0.016169679494132522
0.016169679494132522
0.016169679494132522
0.016169679494132522
0.016169679494132522
0.016169679494132522
0.016169679494132522
0.016169679494132522
0.015237600051462845
0.43003734271345845
0.016169679494132522
0.016169679494132522
0.016169679494132522
0.016169679494132522
0.016169679494132522
0.016169679494132522
0.016169679494132522
0.016169679494132522
0.016169679494132522
0.016169679494132522
0.016169679494132522
0.016169679494132522
0.016169679494132522
0.016169679494132522
0.016033873211086676
0.016033873211086676
2.363902982400025
0.016033873211086676
0.016033873211086676
0.016033873211086676
0.016033873211086676
0.016033873211086676
0.016033873211086676
0.016033873211086676
0.016033873211086676
0.016033873211086676
0.016033873211086676
0.016033873211086676
0.016033873211086676
0.016033873211086676
0.016033873211086676
0.016033873211086676
0.016033873211086676
0.016033873211086676
0.016033873211086676
0.016033873211086676
0.016033873211086676
0.016033873211086676
0.016033873211086676
0.016033873211086676
2.363902982400025
2.363902982400025
2.363902982400025
2.363902982400025
2.363902982400025
2.363902982400025
2.363902982400025
2.363902982400025
2.363902982400025
2.363902982400025
2.363902982400025
2.363902982400025
2.363902982400025
2.363902982400025
2.363902982400025
2.363902982400025
2.363902982400025
-0.0011579441118761296
-0.0011579441118761296
-0.0011579441118761296
-0.0011579441118761296
2.363902982400025
2.363902982400025
2.363902982400025
2.363902982400025
2.363902982400025
2.363902982400025
2.363902982400025
2.363902982400025
0.016033873211086676
-0.0011579441118761296
-0.0011579441118761296
0.016033873211086676
2.363902982400025
2.363902982400025
2.363902982400025
2.363902982400025
2.363902982400025
2.363902982400025
2.363902982400025
2.363902982400025
2.363902982400025
-0.0011579441118761296
-0.0011579441118761296
-0.0011579441118761296
-0.0011579441118761296
-0.0011579441118761296
-0.0011579441118761296
-0.0011579441118761296
-0.0011579441118761296
-0.0011579441118761296
0.016033873211086676
2.363795151343424
0.016033873211086676
0.016033873211086676
0.016033873211086676
0.016033873211086676
0.016033873211086676
0.016033873211086676
0.016033873211086676
0.016033873211086676
0.016033873211086676
0.016033873211086676
0.016033873211086676
0.016033873211086676
0.016033873211086676
-0.001265775168476843
-0.001265775168476843
-0.001265775168476843
-0.001265775168476843
-0.001265775168476843
-0.001265775168476843
-0.001265775168476843
-0.001265775168476843
-0.001265775168476843
-0.001265775168476843
-0.001265775168476843
-0.001265775168476843
-0.001265775168476843
-0.001265775168476843
-0.001265775168476843
-0.001265775168476843
-0.001265775168476843
-0.001265775168476843
2.363795151343424
2.363795151343424
2.363795151343424
2.363795151343424
2.363795151343424
2.363795151343424
2.363795151343424
2.363795151343424
2.363795151343424
2.363795151343424
2.363795151343424
2.363795151343424
2.363795151343424
2.363795151343424
2.363795151343424
2.363795151343424
2.363795151343424
2.363795151343424
2.363795151343424
2.363795151343424
2.363795151343424
2.363795151343424
2.363795151343424
2.363795151343424
2.363795151343424
2.363795151343424
2.363795151343424
2.363795151343424
0.015926042154485964
0.015926042154485964
0.015926042154485964
0.015926042154485964
0.015926042154485964
0.015926042154485964
0.015926042154485964
0.015926042154485964
0.015926042154485964
0.015926042154485964
0.015926042154485964
0.015926042154485964
0.015926042154485964
0.015926042154485964
0.015926042154485964
0.015926042154485964
0.015926042154485964
0.015926042154485964
2.363795151343424
2.363795151343424
2.363795151343424
0.015926042154485964
0.015926042154485964
0.015926042154485964
2.363795151343424
2.363795151343424
2.363795151343424
-0.001265775168476843
-0.001265775168476843
-0.001265775168476843
-0.001265775168476843
2.363795151343424
2.363795151343424
2.363795151343424
2.363795151343424
2.363795151343424
2.363795151343424
2.363795151343424
0.015926042154485964
2.363795151343424
2.363795151343424
2.363795151343424
2.363795151343424
2.363795151343424
2.363795151343424
2.363795151343424
2.363795151343424
-0.001265775168476843
-0.001265775168476843
-0.001265775168476843
0.015926042154485964
0.015926042154485964
0.015926042154485964
0.015926042154485964
2.363795151343424
0.015926042154485964
0.015926042154485964
0.015926042154485964
0.015926042154485964
0.015926042154485964
0.01740333656491545
0.015926042154485964
0.015926042154485964
0.01740333656491545
0.015926042154485964
0.015926042154485964
0.01740333656491545
2.363795151343424
2.363795151343424
2.363795151343424
2.363795151343424
2.363795151343424
0.01740333656491545
0.015926042154485964
2.363795151343424
2.363795151343424
-0.001265775168476843
-0.001265775168476843
-0.001265775168476843
-0.001265775168476843
-0.001265775168476843
-0.001265775168476843
-0.001265775168476843
-0.001265775168476843
-0.001265775168476843
-0.001265775168476843
-0.001265775168476843
-0.001265775168476843
-0.001265775168476843
-0.001265775168476843
-0.001265775168476843
-0.001265775168476843
2.363795151343424
2.363795151343424
2.363795151343424
2.363795151343424
2.363795151343424
2.363795151343424
2.363795151343424
0.01740333656491545
0.01740333656491545
0.01740333656491545
0.01740333656491545
0.01740333656491545
0.01740333656491545
0.01740333656491545
0.01740333656491545
0.01740333656491545
0.01740333656491545
0.01740333656491545
0.01740333656491545
-0.001265775168476843
0.01740333656491545
0.01740333656491545
0.01740333656491545
0.01740333656491545
0.01740333656491545
0.01740333656491545
0.01740333656491545
0.01740333656491545
0.01740333656491545
0.01740333656491545
0.01740333656491545
0.01740333656491545
0.01740333656491545
0.01740333656491545
0.01740333656491545
0.01740333656491545
0.01740333656491545
0.01740333656491545
0.01740333656491545
0.01740333656491545
0.01740333656491545
0.01740333656491545
0.01740333656491545
0.01740333656491545
0.01740333656491545
0.01740333656491545
0.01740333656491545
0.01740333656491545
0.01740333656491545
0.01740333656491545
0.01740333656491545
0.01740333656491545
0.01740333656491545
0.01740333656491545
0.01740333656491545
0.01740333656491545
0.01740333656491545
0.01740333656491545
0.01740333656491545
0.01740333656491545
0.01740333656491545
0.01740333656491545
0.01740333656491545
0.01740333656491545
0.01740333656491545
0.01740333656491545
0.01740333656491545
0.01740333656491545
0.01740333656491545
0.01740333656491545
0.01740333656491545
0.01740333656491545
0.01740333656491545
0.01740333656491545
0.01740333656491545
0.01740333656491545
0.01740333656491545
0.01740333656491545
0.01740333656491545
0.01740333656491545
0.01740333656491545
0.01740333656491545
0.01740333656491545
0.01740333656491545
0.01740333656491545
0.01740333656491545
0.01740333656491545
0.01740333656491545
0.01740333656491545
0.01740333656491545
0.01740333656491545
0.01740333656491545
0.01740333656491545
0.01740333656491545
0.01740333656491545
0.01740333656491545
0.01740333656491545
0.01740333656491545
0.01740333656491545
0.01740333656491545
0.01740333656491545
0.01740333656491545
0.01740333656491545
0.01740333656491545
0.01740333656491545
0.01740333656491545
0.01740333656491545
0.01740333656491545
0.01740333656491545
0.01740333656491545
0.01740333656491545
0.01740333656491545
0.01740333656491545
0.01740333656491545
0.01740333656491545
0.01740333656491545
0.01740333656491545
0.01740333656491545
0.01740333656491545
0.01740333656491545
0.01740333656491545
0.01740333656491545
0.01740333656491545
0.01740333656491545
0.01740333656491545
0.01740333656491545
0.01740333656491545
0.01740333656491545
0.01740333656491545
0.01740333656491545
0.01740333656491545
0.01740333656491545
0.01740333656491545
0.01740333656491545
0.01740333656491545
0.01740333656491545
0.01740333656491545
0.01740333656491545
2.363795151343424
2.363795151343424
0.01740333656491545
0.01740333656491545
0.01740333656491545
0.01740333656491545
0.01740333656491545
0.01740333656491545
0.01740333656491545
0.01740333656491545
0.01740333656491545
2.363795151343424
2.363795151343424
2.363795151343424
2.363795151343424
2.363795151343424
2.363795151343424
0.01740333656491545
0.01740333656491545
0.01740333656491545
0.01740333656491545
0.01740333656491545
0.01740333656491545
0.01740333656491545
0.01740333656491545
0.01740333656491545
0.01740333656491545
0.01740333656491545
0.01740333656491545
0.01740333656491545
0.01740333656491545
0.01740333656491545
2.363795151343424
2.363795151343424
2.363795151343424
2.363795151343424
2.363795151343424
2.363795151343424
2.363795151343424
2.363795151343424
2.363795151343424
2.363795151343424
2.363795151343424
2.363795151343424
2.363795151343424
2.363795151343424
2.363795151343424
0.01740333656491545
0.01740333656491545
0.01740333656491545
0.01740333656491545
0.01740333656491545
0.01740333656491545
0.01740333656491545
0.01740333656491545
0.01740333656491545
0.01740333656491545
0.01740333656491545
0.01740333656491545
0.01740333656491545
0.01740333656491545
2.363795151343424
2.363795151343424
2.363795151343424
2.363795151343424
2.363795151343424
-0.001265775168476843
-0.001265775168476843
-0.001265775168476843
-0.001265775168476843
-0.001265775168476843
0.01740333656491545
0.01740333656491545
0.01740333656491545
0.01740333656491545
0.01740333656491545
0.01740333656491545
0.01740333656491545
0.01740333656491545
0.01740333656491545
0.01740333656491545
0.01740333656491545
0.01740333656491545
0.01740333656491545
0.01740333656491545
0.01740333656491545
0.01740333656491545
0.01740333656491545
0.01740333656491545
0.01740333656491545
0.01740333656491545
0.01740333656491545
0.01740333656491545
0.01740333656491545
0.01740333656491545
0.01740333656491545
0.01740333656491545
0.01740333656491545
0.01740333656491545
0.01740333656491545
0.01740333656491545
0.01740333656491545
0.01740333656491545
0.01740333656491545
0.01740333656491545
0.01740333656491545
0.01740333656491545
0.01740333656491545
0.01740333656491545
0.01740333656491545
0.01740333656491545
0.01740333656491545
0.01740333656491545
0.01740333656491545
0.01740333656491545
0.01740333656491545
0.01740333656491545
0.01740333656491545
0.01740333656491545
0.01740333656491545
0.01740333656491545
0.01740333656491545
-0.001265775168476843
-0.001265775168476843
-0.001265775168476843
-0.001265775168476843
-0.001265775168476843
-0.001265775168476843
-0.001265775168476843
-0.001265775168476843
-0.001265775168476843
-0.001265775168476843
-0.001265775168476843
-0.001265775168476843
-0.001265775168476843
-0.001265775168476843
-0.001265775168476843
-0.001265775168476843
-0.001265775168476843
-0.001265775168476843
-0.001265775168476843
-0.001265775168476843
-0.001265775168476843
-0.001265775168476843
-0.001265775168476843
-0.001265775168476843
-0.001265775168476843
-0.001265775168476843
-0.001265775168476843
-0.001265775168476843
-0.001265775168476843
-0.001265775168476843
-0.001265775168476843
-0.001265775168476843
-0.001265775168476843
0.021632979965898566
0.021632979965898566
0.021632979965898566
0.021632979965898566
0.021632979965898566
0.021632979965898566
0.021632979965898566
-0.001265775168476843
-0.001265775168476843
-0.001265775168476843
-0.001265775168476843
-0.001265775168476843
-0.001265775168476843
-0.001265775168476843
-0.001265775168476843
-0.001265775168476843
-0.001265775168476843
-0.001265775168476843
-0.001265775168476843
-0.001265775168476843
-0.001265775168476843
-0.001265775168476843
-0.001265775168476843
-0.001265775168476843
-0.001265775168476843
-0.001265775168476843
-0.001265775168476843
-0.001265775168476843
-0.001265775168476843
-0.001265775168476843
-0.0011579441118761296
-0.0011579441118761296
-0.0011579441118761296
-0.0011579441118761296
-0.001265775168476843
-0.001265775168476843
-0.001265775168476843
-0.001265775168476843
-0.001265775168476843
-0.001265775168476843
-0.001265775168476843
-0.001265775168476843
-0.001265775168476843
-0.001265775168476843
-0.001265775168476843
-0.001265775168476843
-0.001265775168476843
-0.001265775168476843
-0.001265775168476843
-0.001265775168476843
-0.001265775168476843
-0.001265775168476843
-0.0011579441118761296
-0.001265775168476843
-0.001265775168476843
0.015926042154485964
0.015926042154485964
0.015926042154485964
2.363902982400025
0.015926042154485964
0.015926042154485964
2.363795151343424
-0.001265775168476843
-0.001265775168476843
-0.001265775168476843
-0.001265775168476843
-0.001265775168476843
-0.001265775168476843
-0.001265775168476843
-0.001265775168476843
-0.001265775168476843
-0.001265775168476843
-0.001265775168476843
-0.001265775168476843
-0.001265775168476843
-0.001265775168476843
-0.0011579441118761296
0.016033873211086676
0.016033873211086676
-0.0011579441118761296
-0.0011579441118761296
-0.0011579441118761296
-0.0011579441118761296
-0.0011579441118761296
-0.0011579441118761296
-0.0011579441118761296
-0.0011579441118761296
-0.0011579441118761296
-0.0011579441118761296
-0.0011579441118761296
-0.0011579441118761296
-0.0011579441118761296
-0.0011579441118761296
-0.0011579441118761296
-0.0011579441118761296
-0.0011579441118761296
-0.0011579441118761296
-0.0011579441118761296
-0.0011579441118761296
-0.0011579441118761296
-0.0011579441118761296
-0.0011579441118761296
-0.0011579441118761296
-0.0011579441118761296
-0.0011579441118761296
-0.0011579441118761296
-0.0011579441118761296
-0.0011579441118761296
-0.0011579441118761296
-0.0011579441118761296
-0.0011579441118761296
-0.0011579441118761296
-0.0011579441118761296
-0.0011579441118761296
-0.0011579441118761296
-0.0011579441118761296
-0.0011579441118761296
-0.0011579441118761296
-0.0011579441118761296
-0.0011579441118761296
-0.0011579441118761296
-0.0011579441118761296
-0.0011579441118761296
-0.0011579441118761296
-0.0011579441118761296
-0.0011579441118761296
-0.0011579441118761296
-0.0010221378288302906
-0.0010221378288302906
-0.0010221378288302906
-0.0010221378288302906
-0.0010221378288302906
-0.0010221378288302906
-0.0010221378288302906
-0.0010221378288302906
-0.0010221378288302906
-0.0010221378288302906
-0.0010221378288302906
-0.0010221378288302906
-0.0010221378288302906
-0.0010221378288302906
-0.0010221378288302906
-0.0010221378288302906
-0.0010221378288302906
-0.0010221378288302906
-0.0010221378288302906
-0.0010221378288302906
-0.0010221378288302906
-0.0010221378288302906
-0.0010221378288302906
-0.0010221378288302906
-0.0010221378288302906
-0.0010221378288302906
-0.0010221378288302906
-0.0010221378288302906
-0.0010221378288302906
-0.0010221378288302906
-0.0010221378288302906
-0.0010221378288302906
-0.0010221378288302906
-0.0010221378288302906
0.021632979965898566
0.021632979965898566
0.021632979965898566
-0.0010221378288302906
-0.0010221378288302906
-0.0010221378288302906
-0.0010221378288302906
-0.0010221378288302906
-0.0010221378288302906
-0.0010221378288302906
-0.0010221378288302906
-0.0010221378288302906
-0.0010221378288302906
-0.0010221378288302906
-0.0010221378288302906
-0.0010221378288302906
-0.0010221378288302906
-0.0010221378288302906
-0.0010221378288302906
-0.0010221378288302906
-0.0010221378288302906
-0.0010221378288302906
-0.0010221378288302906
-0.0010221378288302906
-0.0010221378288302906
-0.0010221378288302906
-0.0010221378288302906
-0.0010221378288302906
-0.0010221378288302906
-0.0010221378288302906
2.0470414647566875
2.0470414647566875
-0.0010221378288302906
-0.0010221378288302906
2.0470414647566875
-0.0010221378288302906
-0.0010221378288302906
-0.0010221378288302906
-0.0010221378288302906
-0.0010221378288302906
-0.0010221378288302906
-0.0010221378288302906
-0.0010221378288302906
-0.0010221378288302906
-0.0010221378288302906
-0.0010221378288302906
-0.0010221378288302906
-0.0010221378288302906
-0.0010221378288302906
-0.0010221378288302906
2.3640387886830707
-0.0010221378288302906
-0.0010221378288302906
-0.0010221378288302906
-0.0010221378288302906
-0.0010221378288302906
-0.0010221378288302906
-0.0010221378288302906
0.24209643592709731
0.24209643592709731
0.24209643592709731
0.24209643592709731
0.24209643592709731
0.24209643592709731
0.24209643592709731
0.24209643592709731
0.24209643592709731
0.24209643592709731
0.24209643592709731
0.24209643592709731
0.24209643592709731
0.24209643592709731
0.24209643592709731
0.24209643592709731
0.24209643592709731
0.24209643592709731
0.24209643592709731
0.0037590907360790984
0.0037590907360790984
0.24209643592709731
0.24209643592709731
0.24209643592709731
0.24209643592709731
0.24209643592709731
0.24209643592709731
0.24209643592709731
0.24209643592709731
0.24209643592709731
0.24209643592709731
0.24209643592709731
2.36882001724798
2.36882001724798
2.36882001724798
2.36882001724798
2.36882001724798
2.36882001724798
2.36882001724798
2.36882001724798
2.36882001724798
2.36882001724798
2.36882001724798
2.36882001724798
2.36882001724798
2.36882001724798
0.020950908059041897
0.020950908059041897
0.020950908059041897
0.020950908059041897
0.2592882532500601
0.020950908059041897
0.020950908059041897
0.020950908059041897
2.36882001724798
2.36882001724798
2.36882001724798
2.36882001724798
2.36882001724798
2.36882001724798
2.36882001724798
2.36882001724798
0.0037590907360790984
0.0037590907360790984
0.0037590907360790984
0.0037590907360790984
0.0037590907360790984
0.0037590907360790984
2.36882001724798
0.0037590907360790984
0.0037590907360790984
0.0037590907360790984
0.0037590907360790984
0.0037590907360790984
0.0037590907360790984
0.0037590907360790984
2.36882001724798
2.36882001724798
0.020950908059041897
0.020950908059041897
0.020950908059041897
0.020950908059041897
0.020950908059041897
0.020950908059041897
0.020950908059041897
0.020950908059041897
0.020950908059041897
0.020950908059041897
0.020950908059041897
0.020950908059041897
0.020950908059041897
0.020950908059041897
0.020950908059041897
0.020950908059041897
0.020950908059041897
0.020950908059041897
0.020950908059041897
0.020950908059041897
0.020950908059041897
0.020950908059041897
0.020950908059041897
2.36882001724798
0.020950908059041897
0.020950908059041897
0.020950908059041897
0.020950908059041897
0.020950908059041897
0.020950908059041897
0.020950908059041897
0.020950908059041897
0.020950908059041897
0.020950908059041897
0.020950908059041897
0.020950908059041897
0.020950908059041897
0.020950908059041897
0.020950908059041897
0.020950908059041897
0.020950908059041897
0.020950908059041897
0.020950908059041897
0.020950908059041897
2.069014510644561
0.020950908059041897
0.020950908059041897
0.020950908059041897
0.020950908059041897
0.020950908059041897
0.020950908059041897
0.020950908059041897
0.020950908059041897
0.020950908059041897
0.020950908059041897
0.020950908059041897
0.020950908059041897
0.020950908059041897
0.020950908059041897
0.020950908059041897
0.020950908059041897
0.020950908059041897
0.020950908059041897
0.020950908059041897
0.020950908059041897
0.020950908059041897
0.020950908059041897
0.020950908059041897
0.020950908059041897
0.020950908059041897
0.020950908059041897
0.020950908059041897
0.020950908059041897
0.020950908059041897
0.020950908059041897
0.020950908059041897
0.020950908059041897
0.020950908059041897
0.020950908059041897
0.020950908059041897
0.020950908059041897
0.020950908059041897
0.020950908059041897
0.020950908059041897
0.020950908059041897
0.020950908059041897
0.020950908059041897
0.020950908059041897
0.020950908059041897
0.020950908059041897
0.020950908059041897
0.020950908059041897
0.020950908059041897
0.020950908059041897
0.020950908059041897
0.020950908059041897
0.020950908059041897
0.020950908059041897
0.020950908059041897
0.020950908059041897
0.020950908059041897
0.020950908059041897
0.020950908059041897
0.020950908059041897
0.020950908059041897
0.020950908059041897
0.020950908059041897
0.020950908059041897
0.020950908059041897
0.020950908059041897
0.020950908059041897
0.020950908059041897
0.020950908059041897
0.020950908059041897
0.020950908059041897
0.020950908059041897
0.020950908059041897
0.020950908059041897
0.020950908059041897
0.020950908059041897
0.020950908059041897
0.020950908059041897
0.02001882861637223
0.02001882861637223
0.02001882861637223
0.020950908059041897
0.020950908059041897
0.020950908059041897
0.020950908059041897
0.020950908059041897
0.020950908059041897
0.020950908059041897
0.020950908059041897
0.020950908059041897
0.020950908059041897
0.020950908059041897
0.020950908059041897
0.020950908059041897
0.020950908059041897
0.020950908059041897
0.020950908059041897
0.020950908059041897
0.020950908059041897
0.020950908059041897
0.020950908059041897
0.020950908059041897
0.020950908059041897
0.020950908059041897
0.020950908059041897
0.020950908059041897
0.020950908059041897
0.020950908059041897
0.020950908059041897
0.020950908059041897
0.020950908059041897
0.020950908059041897
0.020950908059041897
0.020950908059041897
0.020950908059041897
0.020950908059041897
0.020950908059041897
0.020950908059041897
0.020950908059041897
0.020950908059041897
0.020950908059041897
0.020950908059041897
0.020950908059041897
0.020950908059041897
0.020950908059041897
0.020950908059041897
0.020950908059041897
0.020950908059041897
0.020950908059041897
0.020950908059041897
0.020950908059041897
0.020950908059041897
0.020950908059041897
0.020950908059041897
0.020950908059041897
0.020950908059041897
0.020950908059041897
0.2592882532500601
0.2592882532500601
0.020950908059041897
0.2592882532500601
0.2592882532500601
0.2592882532500601
0.020950908059041897
0.020950908059041897
0.020950908059041897
0.020950908059041897
0.020950908059041897
0.020950908059041897
0.020950908059041897
0.020950908059041897
0.020950908059041897
0.020950908059041897
0.020950908059041897
0.2592882532500601
0.2592882532500601
0.020950908059041897
0.2592882532500601
0.020950908059041897
0.020950908059041897
0.020950908059041897
0.020950908059041897
0.020950908059041897
0.020950908059041897
0.020950908059041897
0.020950908059041897
0.2583561738073904
0.02001882861637223
0.02001882861637223
0.02001882861637223
0.02001882861637223
0.02001882861637223
0.16088105772302966
0.02001882861637223
0.02001882861637223
0.02001882861637223
0.02001882861637223
0.02001882861637223
0.02001882861637223
0.02001882861637223
0.02001882861637223
0.02001882861637223
0.02001882861637223
0.02001882861637223
0.02001882861637223
0.16088105772302966
0.16088105772302966
0.16088105772302966
0.16088105772302966
0.16088105772302966
0.02001882861637223
0.02001882861637223
0.02001882861637223
0.16088105772302966
0.16088105772302966
0.16088105772302966
0.16088105772302966
0.16088105772302966
0.16088105772302966
0.16088105772302966
0.16088105772302966
0.16088105772302966
0.16088105772302966
0.16088105772302966
0.16088105772302966
0.16088105772302966
0.16088105772302966
0.16088105772302966
0.16088105772302966
0.16088105772302966
0.16088105772302966
0.16088105772302966
0.16088105772302966
0.16088105772302966
0.16088105772302966
0.16088105772302966
0.16088105772302966
0.16088105772302966
0.16088105772302966
0.16088105772302966
0.16088105772302966
0.16088105772302966
0.16088105772302966
0.16088105772302966
0.16088105772302966
0.16088105772302966
0.16088105772302966
0.015237600051462845
0.16088105772302966
0.16088105772302966
0.16088105772302966
0.16088105772302966
0.16088105772302966
0.16088105772302966
0.015237600051462845
0.015237600051462845
0.015237600051462845
0.015237600051462845
0.015237600051462845
0.015237600051462845
0.015237600051462845
0.015237600051462845
0.015237600051462845
0.015237600051462845
0.015237600051462845
0.015237600051462845
0.015237600051462845
0.015237600051462845
0.015237600051462845
0.015237600051462845
0.015237600051462845
0.015237600051462845
0.16088105772302966
0.16088105772302966
0.16088105772302966
0.16088105772302966
0.16088105772302966
0.16088105772302966
0.16088105772302966
0.16088105772302966
0.015237600051462845
0.015237600051462845
0.015237600051462845
0.015237600051462845
0.015237600051462845
0.015237600051462845
0.015237600051462845
0.015237600051462845
0.015237600051462845
0.015237600051462845
0.015237600051462845
0.015237600051462845
0.015237600051462845
0.015237600051462845
0.015237600051462845
0.015237600051462845
0.015237600051462845
0.015237600051462845
0.015237600051462845
0.015237600051462845
0.015237600051462845
0.015237600051462845
0.015237600051462845
0.015237600051462845
0.015237600051462845
0.015237600051462845
0.015237600051462845
0.015237600051462845
0.015237600051462845
0.015237600051462845
0.015237600051462845
0.015237600051462845
0.015237600051462845
0.015237600051462845
0.015237600051462845
0.015237600051462845
0.015237600051462845
0.015237600051462845
0.015237600051462845
0.015237600051462845
0.015237600051462845
0.015237600051462845
0.015237600051462845
0.015237600051462845
0.015237600051462845
0.015237600051462845
0.015237600051462845
0.015237600051462845
0.015237600051462845
0.015237600051462845
0.015237600051462845
0.015237600051462845
0.015237600051462845
0.015237600051462845
0.015237600051462845
0.015237600051462845
0.015237600051462845
0.015237600051462845
0.015237600051462845
0.015237600051462845
0.015237600051462845
0.015237600051462845
0.015237600051462845
0.015237600051462845
0.015237600051462845
0.015237600051462845
0.015237600051462845
0.015237600051462845
0.015237600051462845
0.015237600051462845
0.015237600051462845
0.015237600051462845
0.015237600051462845
0.015237600051462845
0.015237600051462845
0.015237600051462845
0.015237600051462845
0.015237600051462845
0.015237600051462845
0.015237600051462845
0.015237600051462845
0.015237600051462845
0.015237600051462845
0.015237600051462845
0.015237600051462845
0.015237600051462845
0.015237600051462845
0.015237600051462845
0.015237600051462845
0.015237600051462845
0.015237600051462845
0.037892717846191665
0.015237600051462845
0.015237600051462845
0.015237600051462845
0.015237600051462845
0.015237600051462845
0.015237600051462845
0.015237600051462845
0.015237600051462845
0.015237600051462845
0.015237600051462845
0.015237600051462845
0.015237600051462845
0.015237600051462845
0.015237600051462845
0.015237600051462845
0.015237600051462845
0.015237600051462845
0.015237600051462845
0.015237600051462845
0.015237600051462845
0.015237600051462845
0.015237600051462845
0.015237600051462845
0.015237600051462845
0.015237600051462845
0.015237600051462845
0.015237600051462845
0.015237600051462845
0.015237600051462845
0.015237600051462845
0.015237600051462845
0.015237600051462845
0.015237600051462845
0.015237600051462845
0.015237600051462845
0.015237600051462845
0.015237600051462845
0.015237600051462845
0.015237600051462845
0.015237600051462845
0.015237600051462845
0.015237600051462845
0.015237600051462845
0.015237600051462845
0.015237600051462845
0.015237600051462845
0.015101793768417006
0.015101793768417006
0.015237600051462845
0.015237600051462845
0.015237600051462845
0.015237600051462845
0.015237600051462845
0.015237600051462845
0.015237600051462845
0.015101793768417006
0.015101793768417006
0.015101793768417006
0.015101793768417006
0.015237600051462845
0.015237600051462845
0.015237600051462845
0.015237600051462845
0.015237600051462845
0.015101793768417006
0.015237600051462845
0.015237600051462845
0.015101793768417006
0.015237600051462845
0.015101793768417006
0.015101793768417006
0.015101793768417006
0.015101793768417006
0.0359513126580149
0.015101793768417006
0.015101793768417006
0.015101793768417006
0.015101793768417006
0.015101793768417006
0.015101793768417006
0.015101793768417006
0.015101793768417006
0.015101793768417006
0.015101793768417006
0.015101793768417006
0.015101793768417006
0.015101793768417006
0.015101793768417006
0.015101793768417006
0.015101793768417006
0.015101793768417006
0.015101793768417006
0.015101793768417006
0.015101793768417006
0.015101793768417006
0.015101793768417006
0.015101793768417006
0.015101793768417006
0.015101793768417006
0.015101793768417006
0.037892717846191665
0.015101793768417006
0.015101793768417006
0.015101793768417006
0.015101793768417006
0.015101793768417006
0.015101793768417006
0.015101793768417006
0.015101793768417006
0.015101793768417006
0.015101793768417006
0.015101793768417006
0.015101793768417006
0.015101793768417006
0.015101793768417006
0.015101793768417006
0.015101793768417006
0.015101793768417006
0.015101793768417006
0.015101793768417006
0.015101793768417006
0.015101793768417006
0.015101793768417006
0.015101793768417006
0.015101793768417006
0.015101793768417006
0.015101793768417006
0.015101793768417006
0.015101793768417006
0.015101793768417006
0.015101793768417006
0.015101793768417006
0.015101793768417006
0.015101793768417006
0.015101793768417006
0.015101793768417006
0.015101793768417006
0.015101793768417006
0.015101793768417006
0.015101793768417006
0.015101793768417006
0.015101793768417006
0.015101793768417006
0.015101793768417006
0.015101793768417006
0.015101793768417006
0.015101793768417006
0.015101793768417006
0.015101793768417006
0.015101793768417006
0.015101793768417006
0.015101793768417006
0.015101793768417006
0.015101793768417006
0.015101793768417006
0.015101793768417006
0.015101793768417006
0.015101793768417006
0.015101793768417006
0.015101793768417006
0.015101793768417006
0.015101793768417006
0.015101793768417006
0.015101793768417006
0.015101793768417006
0.015101793768417006
0.015101793768417006
0.015101793768417006
0.0149939627118163
0.015101793768417006
0.0149939627118163
0.015101793768417006
0.015101793768417006
0.015101793768417006
0.015101793768417006
0.015101793768417006
0.015101793768417006
0.015101793768417006
0.0149939627118163
0.0149939627118163
0.015101793768417006
0.0149939627118163
0.015101793768417006
0.015101793768417006
0.015101793768417006
0.0149939627118163
0.0149939627118163
0.0149939627118163
0.0149939627118163
0.0149939627118163
0.0149939627118163
0.0149939627118163
0.0149939627118163
0.0149939627118163
0.0149939627118163
0.06791710847507271
0.0149939627118163
0.06791710847507271
0.06791710847507271
0.0149939627118163
0.0149939627118163
0.0149939627118163
0.0149939627118163
0.0149939627118163
0.0149939627118163
0.0149939627118163
0.0149939627118163
0.0149939627118163
0.0149939627118163
0.0149939627118163
0.0149939627118163
0.0149939627118163
0.0149939627118163
0.0149939627118163
0.0149939627118163
0.0149939627118163
0.0149939627118163
0.0149939627118163
0.0149939627118163
0.0149939627118163
0.0149939627118163
0.0149939627118163
0.0149939627118163
0.0149939627118163
0.0149939627118163
0.0149939627118163
0.0149939627118163
0.0149939627118163
0.0149939627118163
0.0149939627118163
0.0149939627118163
0.0149939627118163
0.0149939627118163
0.0149939627118163
0.0149939627118163
0.0149939627118163
2.063301202636982
2.063301202636982
2.063301202636982
0.0149939627118163
0.0149939627118163
0.0149939627118163
0.0149939627118163
0.0149939627118163
0.0149939627118163
0.0149939627118163
0.0149939627118163
0.0149939627118163
0.0149939627118163
0.0149939627118163
0.0149939627118163
0.0149939627118163
0.0149939627118163
0.0149939627118163
0.0149939627118163
0.0149939627118163
0.0149939627118163
0.0149939627118163
0.0149939627118163
0.0149939627118163
0.0149939627118163
0.0149939627118163
0.0149939627118163
0.0149939627118163
0.0149939627118163
2.3628630719007546
2.3628630719007546
2.4157862176640106
2.4157862176640106
2.4157862176640106
0.0149939627118163
0.0149939627118163
2.063301202636982
2.063301202636982
0.0149939627118163
0.0149939627118163
0.0149939627118163
0.03584348160141419
0.0149939627118163
0.0149939627118163
0.0149939627118163
0.0149939627118163
0.0149939627118163
0.0149939627118163
0.0149939627118163
0.0149939627118163
0.0149939627118163
0.0149939627118163
0.0149939627118163
0.0149939627118163
2.3628630719007546
2.3628630719007546
2.3628630719007546
2.3628630719007546
2.3628630719007546
-0.0021978546111465075
-0.0021978546111465075
-0.0021978546111465075
-0.0021978546111465075
-0.0021978546111465075
-0.0021978546111465075
-0.0021978546111465075
0.016471257122245783
0.016471257122245783
0.016471257122245783
0.0149939627118163
0.0149939627118163
0.0149939627118163
0.0149939627118163
0.0149939627118163
0.0149939627118163
0.0149939627118163
0.0149939627118163
0.0149939627118163
0.0149939627118163
0.0149939627118163
0.016471257122245783
0.016471257122245783
0.016471257122245783
0.016471257122245783
0.016471257122245783
0.016471257122245783
0.016471257122245783
0.016471257122245783
0.016471257122245783
0.016471257122245783
0.016471257122245783
0.016471257122245783
0.016471257122245783
0.016471257122245783
0.016471257122245783
0.016471257122245783
0.016471257122245783
0.016471257122245783
0.016471257122245783
0.016471257122245783
0.016471257122245783
0.016471257122245783
0.016471257122245783
0.016471257122245783
0.016471257122245783
0.016471257122245783
0.016471257122245783
0.016471257122245783
0.016471257122245783
0.016471257122245783
0.016471257122245783
0.016471257122245783
0.016471257122245783
0.016471257122245783
-0.0021978546111465075
-0.0021978546111465075
-0.0021978546111465075
-0.0021978546111465075
-0.0021978546111465075
-0.0021978546111465075
2.3628630719007546
2.3628630719007546
2.3628630719007546
2.3628630719007546
2.3628630719007546
2.3628630719007546
2.3628630719007546
2.3628630719007546
2.3628630719007546
2.3628630719007546
2.3628630719007546
0.0693944028855022
0.0693944028855022
0.0693944028855022
0.0693944028855022
2.4157862176640106
2.4157862176640106
0.0693944028855022
0.0693944028855022
0.0693944028855022
0.0693944028855022
0.016471257122245783
0.016471257122245783
0.016471257122245783
0.0693944028855022
0.0693944028855022
0.0693944028855022
0.0693944028855022
0.0693944028855022
0.016471257122245783
0.016471257122245783
0.016471257122245783
0.016471257122245783
0.016471257122245783
0.016471257122245783
2.3628630719007546
2.3628630719007546
2.3628630719007546
2.4157862176640106
2.4157862176640106
-0.0021978546111465075
-0.0021978546111465075
-0.0021978546111465075
-0.0021978546111465075
2.4157862176640106
2.4157862176640106
2.3628630719007546
2.3628630719007546
2.3628630719007546
2.3628630719007546
2.3628630719007546
2.3628630719007546
2.4366357365536087
2.4366357365536087
2.4366357365536087
2.4366357365536087
2.4366357365536087
2.4366357365536087
2.4366357365536087
2.4366357365536087
2.4366357365536087
2.4366357365536087
2.4366357365536087
0.016471257122245783
0.016471257122245783
0.016471257122245783
0.016471257122245783
0.0693944028855022
0.0693944028855022
0.0693944028855022
0.0693944028855022
0.0693944028855022
0.0693944028855022
0.0693944028855022
0.0693944028855022
0.0693944028855022
0.016471257122245783
0.016471257122245783
0.016471257122245783
0.016471257122245783
0.016471257122245783
0.016471257122245783
0.016471257122245783
0.016471257122245783
0.016471257122245783
0.016471257122245783
0.016471257122245783
0.016471257122245783
0.016471257122245783
0.016471257122245783
0.016471257122245783
0.016471257122245783
0.016471257122245783
0.016471257122245783
0.016471257122245783
0.016471257122245783
0.016471257122245783
0.016471257122245783
0.016471257122245783
0.016471257122245783
0.016471257122245783
0.016471257122245783
0.016471257122245783
0.016471257122245783
0.016471257122245783
0.0693944028855022
0.0693944028855022
0.0693944028855022
0.016471257122245783
0.016471257122245783
0.016471257122245783
0.016471257122245783
0.016471257122245783
0.016471257122245783
0.016471257122245783
0.016471257122245783
0.016471257122245783
0.016471257122245783
0.016471257122245783
0.016471257122245783
0.016471257122245783
0.016471257122245783
0.0693944028855022
0.0693944028855022
0.0693944028855022
0.016471257122245783
0.016471257122245783
0.016471257122245783
0.016471257122245783
0.016471257122245783
0.016471257122245783
0.016471257122245783
0.016471257122245783
0.016471257122245783
0.0693944028855022
0.0693944028855022
0.022697397226304743
0.022697397226304743
0.022697397226304743
0.022697397226304743
0.0693944028855022
0.0693944028855022
0.0693944028855022
0.0693944028855022
0.0693944028855022
0.016471257122245783
0.03732077601184368
0.03732077601184368
0.03732077601184368
0.03732077601184368
0.016471257122245783
0.016471257122245783
0.016471257122245783
0.016471257122245783
0.016471257122245783
0.016471257122245783
0.016471257122245783
0.016471257122245783
0.022697397226304743
0.016471257122245783
0.0693944028855022
0.016471257122245783
0.016471257122245783
0.016471257122245783
0.016471257122245783
0.016471257122245783
0.016471257122245783
0.016471257122245783
0.016471257122245783
0.016471257122245783
0.016471257122245783
0.016471257122245783
0.016471257122245783
0.016471257122245783
0.016471257122245783
0.016471257122245783
0.016471257122245783
0.016471257122245783
0.0693944028855022
0.0693944028855022
0.0693944028855022
0.0693944028855022
0.0693944028855022
0.0693944028855022
0.09024392177510009
0.09024392177510009
0.016471257122245783
0.016471257122245783
0.016471257122245783
0.016471257122245783
0.0693944028855022
0.0693944028855022
0.016471257122245783
0.016471257122245783
0.016471257122245783
0.016471257122245783
0.016471257122245783
0.0693944028855022
0.0693944028855022
0.0693944028855022
0.0693944028855022
0.0693944028855022
0.016471257122245783
0.016471257122245783
0.016471257122245783
0.016471257122245783
0.0693944028855022
0.016471257122245783
0.016471257122245783
0.016471257122245783
0.016471257122245783
0.016471257122245783
0.016471257122245783
0.016471257122245783
0.016471257122245783
0.016471257122245783
0.016471257122245783
0.016471257122245783
0.016471257122245783
0.016471257122245783
0.016471257122245783
0.016471257122245783
0.016471257122245783
0.0693944028855022
0.016471257122245783
0.016471257122245783
0.016471257122245783
0.016471257122245783
0.016471257122245783
0.016471257122245783
0.016471257122245783
0.016471257122245783
0.016471257122245783
0.016471257122245783
0.016471257122245783
0.016471257122245783
0.016471257122245783
0.016471257122245783
0.016471257122245783
0.016471257122245783
0.016471257122245783
0.016471257122245783
0.016471257122245783
0.016471257122245783
0.016471257122245783
0.016471257122245783
0.0693944028855022
0.0693944028855022
0.0693944028855022
0.0693944028855022
0.0693944028855022
0.016471257122245783
0.016471257122245783
0.016471257122245783
0.016471257122245783
0.016471257122245783
0.016471257122245783
0.016471257122245783
0.016471257122245783
0.016471257122245783
0.016471257122245783
0.016471257122245783
0.016471257122245783
0.016471257122245783
0.016471257122245783
0.016471257122245783
0.016471257122245783
0.016471257122245783
0.016471257122245783
0.08881010622726729
0.08881010622726729
0.016471257122245783
0.07562054298956115
0.07562054298956115
0.07562054298956115
0.016471257122245783
0.016471257122245783
0.016471257122245783
0.016471257122245783
0.016471257122245783
0.016471257122245783
0.016471257122245783
0.016471257122245783
0.016471257122245783
0.016471257122245783
0.016471257122245783
0.016471257122245783
0.016471257122245783
0.016471257122245783
0.016471257122245783
0.016471257122245783
0.0149939627118163
0.0149939627118163
0.0149939627118163
0.0693944028855022
0.016471257122245783
0.016471257122245783
0.0149939627118163
0.016471257122245783
0.016471257122245783
0.016471257122245783
0.016471257122245783
0.016471257122245783
0.016471257122245783
0.016471257122245783
0.016471257122245783
0.016471257122245783
0.016471257122245783
0.016471257122245783
0.016471257122245783
0.06791710847507271
0.06791710847507271
0.0149939627118163
0.0149939627118163
2.063301202636982
0.0149939627118163
0.0149939627118163
0.06791710847507271
2.112741296607628
2.112741296607628
0.06791710847507271
0.06791710847507271
2.4157862176640106
0.05564646384794833
-0.0021978546111465075
0.020700900523228892
-0.0021978546111465075
-0.0021978546111465075
0.06791710847507271
0.0887666273646706
0.06791710847507271
2.4157862176640106
0.06791710847507271
0.06791710847507271
0.06791710847507271
0.06791710847507271
2.3628630719007546
-0.0021978546111465075
-0.0021978546111465075
-0.0021978546111465075
-0.0021978546111465075
-0.0021978546111465075
-0.0021978546111465075
-0.0021978546111465075
-0.0021978546111465075
-0.0021978546111465075
-0.0020900235545457946
-0.0020900235545457946
-0.0020900235545457946
-0.0020900235545457946
-0.0021978546111465075
-0.0020900235545457946
-0.0020900235545457946
2.38576182703513
-0.0020900235545457946
2.046109385314018
0.05575429490454904
0.05575429490454904
0.05575429490454904
0.05575429490454904
0.05575429490454904
0.05575429490454904
0.07506216718971342
-0.0020900235545457946
2.100470651980503
-0.0020900235545457946
2.046109385314018
-0.0020900235545457946
-0.0020900235545457946
0.020700900523228892
0.020700900523228892
0.05575429490454904
0.020700900523228892
0.020700900523228892
2.046109385314018
2.046109385314018
0.020700900523228892
-0.001954217271499956
-0.001954217271499956
-0.001954217271499956
-0.001954217271499956
0.062116241291653836
0.05589010118759488
2.100470651980503
2.100470651980503
-0.001954217271499956
-0.001954217271499956
2.046109385314018
0.05589010118759488
0.05589010118759488
-0.001954217271499956
-0.001954217271499956
-0.001954217271499956
0.020700900523228892
2.046109385314018
2.046109385314018
0.020700900523228892
-0.001954217271499956
0.020700900523228892
0.07506216718971342
0.05589010118759488
0.05589010118759488
0.05589010118759488
2.100470651980503
-0.001954217271499956
0.020700900523228892
0.020700900523228892
-0.001954217271499956
-0.001954217271499956
0.020700900523228892
-0.001954217271499956
-0.001954217271499956
-0.001954217271499956
-0.001954217271499956
2.100470651980503
0.07506216718971342
0.07506216718971342
2.100470651980503
2.100470651980503
0.05589010118759488
-0.001954217271499956
0.05589010118759488
0.05589010118759488
-0.001954217271499956
-0.001954217271499956
2.046109385314018
0.05589010118759488
0.05589010118759488
0.05589010118759488
-0.001954217271499956
2.3631067092404012
2.3631067092404012
0.015237600051462845
0.015237600051462845
0.015237600051462845
0.015237600051462845
0.015237600051462845
2.063301202636982
0.015237600051462845
0.015237600051462845
2.3631067092404012
2.3631067092404012
2.3631067092404012
2.3631067092404012
0.20153355885916172
0.20153355885916172
0.21573892156765562
2.191752842985585
2.046109385314018
2.046109385314018
-0.001954217271499956
2.191752842985585
2.191752842985585
0.20153355885916172
0.20153355885916172
0.20153355885916172
0.20153355885916172
0.20153355885916172
0.20153355885916172
0.1436892404000669
0.1436892404000669
0.025482129088138267
0.16634435819479568
0.16634435819479568
0.16634435819479568
0.1436892404000669
0.025482129088138267
2.191752842985585
2.191752842985585
4.556813769497482
2.208944660308549
0.16088105772302966
0.16634435819479568
0.16634435819479568
0.16634435819479568
0.20153355885916172
0.06067132975250423
0.06067132975250423
0.06067132975250423
2.0508906138789276
4.465391634361473
2.1052518805454126
0.06067132975250423
0.06067132975250423
0.025482129088138267
0.025482129088138267
0.025482129088138267
0.025482129088138267
0.06067132975250423
0.06067132975250423
2.1052518805454126
0.06067132975250423
0.07984339575462278
2.0508906138789276
0.07984339575462278
0.0028270112934094286
2.0508906138789276
0.0028270112934094286
2.1052518805454126
0.06067132975250423
0.07984339575462278
2.0508906138789276
0.025482129088138267
0.0028270112934094286
2.0508906138789276
2.0508906138789276
0.0028270112934094286
0.06067132975250423
0.06067132975250423
0.06067132975250423
0.06067132975250423
0.0028270112934094286
0.0028270112934094286
0.0028270112934094286
0.0028270112934094286
0.06067132975250423
2.1052518805454126
0.025482129088138267
2.0508906138789276
2.0508906138789276
2.0508906138789276
2.0508906138789276
0.0028270112934094286
0.0028270112934094286
0.07984339575462278
0.06067132975250423
2.1052518805454126
0.025482129088138267
0.025482129088138267
0.025482129088138267
0.0028270112934094286
0.06067132975250423
0.06067132975250423
0.06067132975250423
2.0508906138789276
0.025482129088138267
0.0028270112934094286
0.0028270112934094286
2.1052518805454126
0.025482129088138267
0.06067132975250423
0.06067132975250423
0.025482129088138267
0.0028270112934094286
0.0028270112934094286
0.07984339575462278
0.07984339575462278
2.1052518805454126
0.06067132975250423
2.0508906138789276
0.0028270112934094286
0.025482129088138267
0.025482129088138267
2.3678879378053104
2.3678879378053104
2.0508906138789276
2.0508906138789276
0.06067132975250423
0.07984339575462278
0.07984339575462278
2.1052518805454126
2.3678879378053104
0.0028270112934094286
2.0508906138789276
0.0028270112934094286
2.1052518805454126
2.1052518805454126
0.06067132975250423
0.06067132975250423
0.09211404038174718
0.09211404038174718
0.09211404038174718
2.3678879378053104
2.3552669380294478
2.3678879378053104
2.3678879378053104
2.3678879378053104
2.3678879378053104
2.3678879378053104
2.3678879378053104
0.07294197437962864
0.07294197437962864
0.07294197437962864
0.07294197437962864
0.02001882861637223
2.1175225251725376
0.02001882861637223
0.042673946411101046
0.042673946411101046
0.02001882861637223
0.07294197437962864
0.07294197437962864
0.07294197437962864
0.042673946411101046
0.02001882861637223
0.02001882861637223
2.1175225251725376
0.07294197437962864
2.1175225251725376
0.042673946411101046
0.042673946411101046
0.042673946411101046
0.02001882861637223
0.02001882861637223
2.0680824312018915
2.1175225251725376
0.07294197437962864
0.07294197437962864
0.07294197437962864
0.07294197437962864
0.02001882861637223
0.07294197437962864
2.1383720440621357
2.1175225251725376
0.02001882861637223
0.02001882861637223
0.02001882861637223
0.02001882861637223
0.02001882861637223
0.02001882861637223
0.02001882861637223
0.07294197437962864
0.07294197437962864
0.07294197437962864
0.02001882861637223
0.02001882861637223
0.02001882861637223
0.02001882861637223
2.0680824312018915
2.0680824312018915
2.0680824312018915
0.07294197437962864
2.1175225251725376
0.09211404038174718
0.042673946411101046
0.042673946411101046
0.042673946411101046
2.420811083568567
2.420811083568567
2.3678879378053104
2.3678879378053104
2.1175225251725376
2.3678879378053104
2.3678879378053104
2.3678879378053104
2.3678879378053104
0.07294197437962864
0.07294197437962864
2.420811083568567
2.420811083568567
2.420811083568567
2.3678879378053104
2.420811083568567
2.420811083568567
2.3678879378053104
2.3678879378053104
0.02001882861637223
0.02001882861637223
0.02001882861637223
0.02001882861637223
0.07294197437962864
0.07294197437962864
0.07294197437962864
0.02001882861637223
0.02001882861637223
0.02001882861637223
0.02001882861637223
0.02001882861637223
0.02001882861637223
0.02001882861637223
0.02001882861637223
0.02001882861637223
0.02001882861637223
0.02001882861637223
0.07294197437962864
0.07294197437962864
0.02001882861637223
0.02001882861637223
0.02001882861637223
0.02001882861637223
0.02001882861637223
0.02001882861637223
0.02001882861637223
0.02001882861637223
0.02001882861637223
0.02001882861637223
0.07294197437962864
0.07294197437962864
0.07294197437962864
0.07294197437962864
0.07294197437962864
0.21380420348628612
0.02001882861637223
0.02001882861637223
0.02001882861637223
0.02001882861637223
0.02001882861637223
0.07294197437962864
0.02001882861637223
0.02001882861637223
0.16088105772302966
0.16088105772302966
0.02001882861637223
0.02001882861637223
0.16088105772302966
0.09379149326922653
0.21380420348628612
0.21380420348628612
0.21380420348628612
0.21380420348628612
0.21380420348628612
0.21380420348628612
0.16088105772302966
0.16088105772302966
0.16088105772302966
0.16088105772302966
0.16088105772302966
0.21380420348628612
0.16088105772302966
0.16088105772302966
0.16088105772302966
0.16088105772302966
0.16088105772302966
0.21380420348628612
0.21380420348628612
0.21380420348628612
0.16088105772302966
0.16088105772302966
0.16088105772302966
0.16088105772302966
0.16088105772302966
0.16088105772302966
0.16088105772302966
0.16088105772302966
0.16088105772302966
0.16088105772302966
0.032926014552567065
0.06816074581471926
0.06816074581471926
0.06816074581471926
0.015237600051462845
0.015237600051462845
0.015237600051462845
0.015237600051462845
0.015237600051462845
0.037892717846191665
0.07438688591877822
0.08901026470431715
0.08901026470431715
0.08901026470431715
0.015237600051462845
0.015237600051462845
2.063301202636982
0.015237600051462845
0.015237600051462845
0.015237600051462845
0.015237600051462845
0.06816074581471926
0.06816074581471926
0.06816074581471926
0.015237600051462845
0.015237600051462845
0.015237600051462845
0.015237600051462845
0.015237600051462845
0.06816074581471926
0.06816074581471926
0.06816074581471926
0.06816074581471926
0.06816074581471926
0.015237600051462845
0.015237600051462845
0.015237600051462845
0.015237600051462845
0.015237600051462845
0.015237600051462845
0.015237600051462845
0.015237600051462845
0.015237600051462845
0.015237600051462845
0.015237600051462845
0.015237600051462845
0.015237600051462845
0.015237600051462845
0.015237600051462845
0.015237600051462845
0.015237600051462845
0.015237600051462845
0.015237600051462845
0.07438688591877822
0.07438688591877822
0.06816074581471926
0.03608711894106074
0.037892717846191665
0.08901026470431715
0.08901026470431715
0.06816074581471926
0.06802493953167343
0.015237600051462845
0.06816074581471926
0.06816074581471926
0.015101793768417006
0.015237600051462845
0.015237600051462845
0.015237600051462845
0.015237600051462845
0.07438688591877822
0.07438688591877822
0.0742510796357324
0.08887445842127133
0.08887445842127133
0.0742510796357324
0.015237600051462845
0.015101793768417006
0.06802493953167343
0.06802493953167343
0.06802493953167343
0.015101793768417006
0.015101793768417006
0.06816074581471926
0.06816074581471926
0.015101793768417006
0.015237600051462845
0.015101793768417006
0.015101793768417006
0.015101793768417006
0.015101793768417006
0.08887445842127133
0.06802493953167343
0.06802493953167343
0.06802493953167343
0.06802493953167343
0.015101793768417006
0.06802493953167343
0.06802493953167343
0.015101793768417006
0.015101793768417006
0.015101793768417006
0.015101793768417006
0.015101793768417006
0.015101793768417006
0.015101793768417006
0.015101793768417006
0.06802493953167343
0.015101793768417006
0.015101793768417006
0.06802493953167343
0.06802493953167343
0.06802493953167343
0.015101793768417006
0.015101793768417006
0.015101793768417006
0.015101793768417006
0.06802493953167343
0.0742510796357324
0.0359513126580149
0.0359513126580149
0.015101793768417006
0.015101793768417006
0.015101793768417006
0.015101793768417006
0.015101793768417006
0.0742510796357324
0.0742510796357324
0.0742510796357324
0.0742510796357324
0.015101793768417006
0.0149939627118163
0.015101793768417006
0.015101793768417006
0.015101793768417006
0.06791710847507271
0.08887445842127133
0.06791710847507271
0.06791710847507271
0.06791710847507271
0.0149939627118163
0.0149939627118163
0.0149939627118163
0.015101793768417006
0.015101793768417006
0.0149939627118163
0.1534121633841411
0.1534121633841411
0.021327933872475963
0.021327933872475963
0.037892717846191665
0.0149939627118163
0.0149939627118163
0.07414324857913167
0.0149939627118163
0.0149939627118163
0.0149939627118163
0.0149939627118163
0.0149939627118163
0.10525312039095507
0.10525312039095507
0.10525312039095507
0.07414324857913167
0.04477227047202278
0.0149939627118163
0.0149939627118163
0.0149939627118163
0.0149939627118163
0.0149939627118163
0.0887666273646706
0.07414324857913167
0.0149939627118163
0.0149939627118163
0.0149939627118163
0.0149939627118163
0.0149939627118163
0.0149939627118163
0.0149939627118163
0.0149939627118163
0.0149939627118163
0.0149939627118163
0.0149939627118163
0.0149939627118163
0.0149939627118163
0.0149939627118163
0.0149939627118163
0.0149939627118163
0.016471257122245783
0.0149939627118163
0.016471257122245783
0.0149939627118163
0.0149939627118163
0.016471257122245783
0.016471257122245783
0.0149939627118163
0.0149939627118163
0.016471257122245783
0.016471257122245783
0.0693944028855022
0.016471257122245783
0.0149939627118163
0.016471257122245783
0.0149939627118163
0.016471257122245783
0.016471257122245783
0.0149939627118163
2.063301202636982
0.0149939627118163
0.0149939627118163
0.016471257122245783
0.016471257122245783
0.016471257122245783
0.016471257122245783
0.016471257122245783
0.016471257122245783
0.016471257122245783
0.016471257122245783
0.022697397226304743
0.016471257122245783
0.016471257122245783
0.016471257122245783
0.016471257122245783
0.016471257122245783
0.016471257122245783
0.016471257122245783
2.0647784970474112
0.016471257122245783
0.016471257122245783
0.03732077601184368
0.016471257122245783
0.016471257122245783
0.016471257122245783
0.016471257122245783
0.016471257122245783
0.016471257122245783
0.016471257122245783
0.016471257122245783
0.016471257122245783
0.016471257122245783
0.016471257122245783
0.016471257122245783
0.016471257122245783
0.016471257122245783
0.016471257122245783
0.016471257122245783
0.016471257122245783
0.07562054298956115
0.09024392177510009
0.09024392177510009
0.016471257122245783
0.07562054298956115
0.0693944028855022
0.09024392177510009
0.016471257122245783
0.016471257122245783
0.016471257122245783
0.016471257122245783
0.016471257122245783
0.016471257122245783
0.0693944028855022
0.07562054298956115
0.07562054298956115
0.07562054298956115
0.09024392177510009
0.016471257122245783
0.016471257122245783
0.016471257122245783
0.016471257122245783
0.0693944028855022
0.0693944028855022
0.016471257122245783
0.016471257122245783
0.016471257122245783
0.09024392177510009
0.07562054298956115
0.016471257122245783
0.09024392177510009
0.0693944028855022
0.0693944028855022
0.0693944028855022
0.016471257122245783
0.016471257122245783
0.016471257122245783
0.016471257122245783
0.016471257122245783
0.016471257122245783
0.016471257122245783
0.016471257122245783
2.0647784970474112
0.016471257122245783
0.07562054298956115
0.07562054298956115
0.09024392177510009
0.09024392177510009
0.09024392177510009
0.016471257122245783
0.0693944028855022
0.0693944028855022
0.016471257122245783
0.016471257122245783
0.016471257122245783
0.016471257122245783
0.016471257122245783
0.016471257122245783
0.07562054298956115
0.07562054298956115
0.07562054298956115
0.09024392177510009
0.09024392177510009
0.09024392177510009
0.09024392177510009
0.016471257122245783
0.016471257122245783
0.016471257122245783
0.016471257122245783
0.016471257122245783
0.016471257122245783
0.016471257122245783
0.016471257122245783
0.016471257122245783
0.016471257122245783
0.016471257122245783
0.08881010622726729
0.0693944028855022
0.0693944028855022
0.0693944028855022
0.0693944028855022
0.0693944028855022
0.0693944028855022
0.0693944028855022
0.016471257122245783
0.016471257122245783
0.016471257122245783
0.016471257122245783
0.016471257122245783
0.016471257122245783
0.016471257122245783
0.016471257122245783
0.016471257122245783
0.016471257122245783
0.016471257122245783
0.016471257122245783
0.016471257122245783
0.0693944028855022
0.0693944028855022
0.0693944028855022
0.016471257122245783
0.03937001225662115
0.016471257122245783
0.016471257122245783
0.016471257122245783
0.016471257122245783
0.016471257122245783
0.016471257122245783
0.016471257122245783
0.016471257122245783
0.016471257122245783
0.016471257122245783
0.016471257122245783
0.016471257122245783
0.016471257122245783
0.016471257122245783
0.016471257122245783
0.016471257122245783
0.016471257122245783
0.016471257122245783
0.016471257122245783
0.016471257122245783
0.016471257122245783
0.016471257122245783
0.016471257122245783
0.016471257122245783
0.016471257122245783
0.03937001225662115
0.016471257122245783
0.016471257122245783
0.016471257122245783
0.016471257122245783
0.016471257122245783
0.016471257122245783
0.016471257122245783
0.016471257122245783
0.016471257122245783
0.016471257122245783
0.016471257122245783
0.016471257122245783
0.016471257122245783
0.016471257122245783
0.016471257122245783
0.016471257122245783
0.016471257122245783
0.016471257122245783
0.016471257122245783
0.016471257122245783
0.016471257122245783
0.016471257122245783
0.016471257122245783
0.016471257122245783
0.016471257122245783
0.016471257122245783
0.016471257122245783
0.016471257122245783
0.016471257122245783
0.016471257122245783
0.016471257122245783
0.016471257122245783
0.016471257122245783
0.016471257122245783
0.016471257122245783
0.016471257122245783
0.016471257122245783
0.016471257122245783
0.016471257122245783
0.03732077601184368
0.0693944028855022
0.016471257122245783
0.0693944028855022
0.09024392177510009
0.0693944028855022
0.08881010622726729
0.016471257122245783
0.016471257122245783
0.016471257122245783
0.016471257122245783
0.016471257122245783
0.016471257122245783
0.016471257122245783
0.016471257122245783
0.016471257122245783
0.016471257122245783
0.016471257122245783
0.016471257122245783
0.016471257122245783
0.03732077601184368
0.022697397226304743
0.0693944028855022
0.07562054298956115
0.0693944028855022
0.0693944028855022
0.0693944028855022
0.0693944028855022
0.016471257122245783
0.016471257122245783
0.016471257122245783
0.016471257122245783
0.016471257122245783
0.016471257122245783
0.016471257122245783
0.016471257122245783
0.08881010622726729
0.0693944028855022
0.0693944028855022
0.0693944028855022
0.016471257122245783
0.016471257122245783
0.016471257122245783
0.016471257122245783
0.016471257122245783
0.016471257122245783
0.016471257122245783
0.016471257122245783
0.016471257122245783
0.016471257122245783
0.016471257122245783
0.016471257122245783
0.016471257122245783
0.016471257122245783
0.016471257122245783
0.016471257122245783
0.016471257122245783
0.016471257122245783
0.016471257122245783
0.016471257122245783
0.016471257122245783
0.03732077601184368
0.016471257122245783
0.016471257122245783
0.016471257122245783
0.016471257122245783
0.016471257122245783
0.016471257122245783
0.03732077601184368
0.022697397226304743
0.022697397226304743
0.022697397226304743
0.022697397226304743
0.022697397226304743
0.022697397226304743
0.022697397226304743
0.03732077601184368
0.016471257122245783
0.016471257122245783
0.016471257122245783
0.016471257122245783
0.016471257122245783
0.016471257122245783
0.016471257122245783
0.016471257122245783
0.016471257122245783
0.016471257122245783
0.03732077601184368
0.03732077601184368
0.022697397226304743
0.03732077601184368
0.07562054298956115
0.022697397226304743
0.022697397226304743
0.016471257122245783
0.0693944028855022
0.016471257122245783
0.016471257122245783
0.02385348944161158
0.016471257122245783
0.016471257122245783
0.016471257122245783
0.016471257122245783
0.016471257122245783
0.016471257122245783
0.016471257122245783
0.016471257122245783
0.016471257122245783
0.016471257122245783
0.016471257122245783
0.016471257122245783
0.03937001225662115
0.016471257122245783
0.016471257122245783
0.016471257122245783
0.016471257122245783
0.016471257122245783
0.016471257122245783
0.016471257122245783
0.016471257122245783
0.016471257122245783
0.016471257122245783
0.016471257122245783
0.016471257122245783
0.03732077601184368
0.016471257122245783
0.016471257122245783
0.016471257122245783
0.016471257122245783
0.09024392177510009
0.0693944028855022
0.09024392177510009
0.016471257122245783
0.016471257122245783
0.016471257122245783
0.016471257122245783
0.016471257122245783
0.016471257122245783
0.016471257122245783
0.046249564882452264
0.07562054298956115
0.15488945779457058
0.07562054298956115
0.07562054298956115
0.07562054298956115
0.07562054298956115
0.07562054298956115
0.016471257122245783
0.016471257122245783
0.016471257122245783
0.016471257122245783
0.016471257122245783
0.016471257122245783
0.016471257122245783
0.016471257122245783
0.016471257122245783
0.016471257122245783
0.016471257122245783
0.016471257122245783
0.016471257122245783
0.016471257122245783
0.022697397226304743
0.022697397226304743
0.09024392177510009
0.09024392177510009
0.09024392177510009
0.09024392177510009
0.07562054298956115
0.09024392177510009
0.07562054298956115
0.07562054298956115
0.016471257122245783
0.016471257122245783
0.016471257122245783
0.016471257122245783
0.016471257122245783
0.016471257122245783
0.016471257122245783
0.016471257122245783
0.016471257122245783
0.016471257122245783
0.016471257122245783
0.016471257122245783
0.03732077601184368
0.016471257122245783
0.016471257122245783
0.016471257122245783
0.016471257122245783
0.02385348944161158
0.159653560564641
0.046249564882452264
0.046249564882452264
0.15488945779457058
0.07562054298956115
0.07562054298956115
0.07562054298956115
0.022697397226304743
0.016471257122245783
0.016471257122245783
0.016471257122245783
0.016471257122245783
0.016471257122245783
0.016471257122245783
0.016471257122245783
0.016471257122245783
0.016471257122245783
0.016471257122245783
0.016471257122245783
0.016471257122245783
0.016471257122245783
0.016471257122245783
0.016471257122245783
0.016471257122245783
0.022697397226304743
0.022697397226304743
0.03732077601184368
0.03732077601184368
0.016471257122245783
0.022697397226304743
0.022697397226304743
0.022697397226304743
0.022697397226304743
0.022697397226304743
0.022697397226304743
0.022697397226304743
0.022697397226304743
0.022697397226304743
0.022697397226304743
0.022697397226304743
0.022697397226304743
0.022697397226304743
0.022697397226304743
0.022697397226304743
0.022697397226304743
0.022697397226304743
0.022697397226304743
0.022697397226304743
0.022697397226304743
0.022697397226304743
0.022697397226304743
0.022697397226304743
0.022697397226304743
0.022697397226304743
0.022697397226304743
0.022697397226304743
0.022697397226304743
0.022697397226304743
0.022697397226304743
0.022697397226304743
0.022697397226304743
0.022697397226304743
0.022697397226304743
0.022697397226304743
0.022697397226304743
0.022697397226304743
0.022697397226304743
0.022697397226304743
0.022697397226304743
0.022697397226304743
0.022697397226304743
0.022697397226304743
0.022697397226304743
0.022697397226304743
0.022697397226304743
0.022697397226304743
0.022697397226304743
0.022697397226304743
0.022697397226304743
0.022697397226304743
0.022697397226304743
0.022697397226304743
0.022697397226304743
0.022697397226304743
0.022697397226304743
0.022697397226304743
0.022697397226304743
0.022697397226304743
0.022697397226304743
0.022697397226304743
0.022697397226304743
0.022697397226304743
0.022697397226304743
0.022697397226304743
0.022697397226304743
0.022697397226304743
0.022697397226304743
0.022697397226304743
0.022697397226304743
0.022697397226304743
0.022697397226304743
0.022697397226304743
0.022697397226304743
0.022697397226304743
0.022697397226304743
0.022697397226304743
0.022697397226304743
0.022697397226304743
0.022697397226304743
0.022697397226304743
0.022697397226304743
0.022697397226304743
0.022697397226304743
0.022697397226304743
0.022697397226304743
0.022697397226304743
0.022697397226304743
0.022697397226304743
0.022697397226304743
0.022697397226304743
0.022697397226304743
0.022697397226304743
0.022697397226304743
0.022697397226304743
0.022697397226304743
0.022697397226304743
0.022697397226304743
0.022697397226304743
0.022697397226304743
0.022697397226304743
0.022697397226304743
0.022697397226304743
0.022697397226304743
0.022697397226304743
0.022697397226304743
0.022697397226304743
0.022697397226304743
0.022697397226304743
0.022697397226304743
0.022697397226304743
0.022697397226304743
0.022697397226304743
0.022697397226304743
0.022697397226304743
0.022697397226304743
0.022697397226304743
0.022697397226304743
0.022697397226304743
0.022697397226304743
0.022697397226304743
0.022697397226304743
0.022697397226304743
0.022697397226304743
0.022697397226304743
0.022697397226304743
0.022697397226304743
0.022697397226304743
0.022697397226304743
0.022697397226304743
0.022697397226304743
0.022697397226304743
0.022697397226304743
0.022697397226304743
0.022697397226304743
0.022697397226304743
0.022697397226304743
0.022697397226304743
0.022697397226304743
0.022697397226304743
0.022697397226304743
0.022697397226304743
0.022697397226304743
0.022697397226304743
0.022697397226304743
0.022697397226304743
0.022697397226304743
0.022697397226304743
0.022697397226304743
0.022697397226304743
0.022697397226304743
0.022697397226304743
0.022697397226304743
0.022697397226304743
0.022697397226304743
0.022697397226304743
0.022697397226304743
0.022697397226304743
0.022697397226304743
0.022697397226304743
0.022697397226304743
0.022697397226304743
0.022697397226304743
0.022697397226304743
0.022697397226304743
0.022697397226304743
0.022697397226304743
0.022697397226304743
0.022697397226304743
0.022697397226304743
0.022697397226304743
0.022697397226304743
0.022697397226304743
0.022697397226304743
0.022697397226304743
0.022697397226304743
0.022697397226304743
0.022697397226304743
0.022697397226304743
0.022697397226304743
0.022697397226304743
0.022697397226304743
0.022697397226304743
0.022697397226304743
0.022697397226304743
0.022697397226304743
0.022697397226304743
0.022697397226304743
0.022697397226304743
0.022697397226304743
0.022697397226304743
0.022697397226304743
0.022697397226304743
0.022697397226304743
0.022697397226304743
0.022697397226304743
0.022697397226304743
0.022697397226304743
0.022697397226304743
0.022697397226304743
0.022697397226304743
0.022697397226304743
0.022697397226304743
0.022697397226304743
0.022697397226304743
0.022697397226304743
0.022697397226304743
0.022697397226304743
0.022697397226304743
0.022697397226304743
0.022697397226304743
0.022697397226304743
0.022697397226304743
0.022697397226304743
0.022697397226304743
0.022697397226304743
0.022697397226304743
0.022697397226304743
0.022697397226304743
0.022697397226304743
0.022697397226304743
0.022697397226304743
0.022697397226304743
0.022697397226304743
0.022697397226304743
0.022697397226304743
0.022697397226304743
0.022697397226304743
0.022697397226304743
0.022697397226304743
0.022697397226304743
0.022697397226304743
0.022697397226304743
0.022697397226304743
0.022697397226304743
0.022697397226304743
0.022697397226304743
0.022697397226304743
0.022697397226304743
0.022697397226304743
0.022697397226304743
0.022697397226304743
0.022697397226304743
0.022697397226304743
0.022697397226304743
0.022697397226304743
0.022697397226304743
0.022697397226304743
0.022697397226304743
0.022697397226304743
0.022697397226304743
0.022697397226304743
0.022697397226304743
0.022697397226304743
0.022697397226304743
0.022697397226304743
0.022697397226304743
0.022697397226304743
0.022697397226304743
0.022697397226304743
0.022697397226304743
0.022697397226304743
0.022697397226304743
0.022697397226304743
0.022697397226304743
0.022697397226304743
0.022697397226304743
0.022697397226304743
0.022697397226304743
0.022697397226304743
0.022697397226304743
0.022697397226304743
0.022697397226304743
0.022697397226304743
0.022697397226304743
0.022697397226304743
0.022697397226304743
0.022697397226304743
0.022697397226304743
0.022697397226304743
0.022697397226304743
0.022697397226304743
0.022697397226304743
0.022697397226304743
0.022697397226304743
0.022697397226304743
0.022697397226304743
0.022697397226304743
0.022697397226304743
0.022697397226304743
0.022697397226304743
0.022697397226304743
0.022697397226304743
0.022697397226304743
0.022697397226304743
0.022697397226304743
0.022697397226304743
0.022697397226304743
0.022697397226304743
0.022697397226304743
0.022697397226304743
0.022697397226304743
0.022697397226304743
0.022697397226304743
0.022697397226304743
0.022697397226304743
0.022697397226304743
0.022697397226304743
0.022697397226304743
0.022697397226304743
0.022697397226304743
0.022697397226304743
0.022697397226304743
0.022697397226304743
0.022697397226304743
0.022697397226304743
0.022697397226304743
0.022697397226304743
0.022697397226304743
0.022697397226304743
0.022697397226304743
0.022697397226304743
0.022697397226304743
0.022697397226304743
0.022697397226304743
0.022697397226304743
0.022697397226304743
0.022697397226304743
0.022697397226304743
0.022697397226304743
0.022697397226304743
0.022697397226304743
0.022697397226304743
0.022697397226304743
0.022697397226304743
0.022697397226304743
0.022697397226304743
0.022697397226304743
0.022697397226304743
0.022697397226304743
0.022697397226304743
0.022697397226304743
0.022697397226304743
0.022697397226304743
0.022697397226304743
0.022697397226304743
0.022697397226304743
0.022697397226304743
0.022697397226304743
0.022697397226304743
0.022697397226304743
0.022697397226304743
0.022697397226304743
0.022697397226304743
0.022697397226304743
0.022697397226304743
0.022697397226304743
0.022697397226304743
0.022697397226304743
0.022697397226304743
0.022697397226304743
0.022697397226304743
0.022697397226304743
0.022697397226304743
0.022697397226304743
0.022697397226304743
0.022697397226304743
0.022697397226304743
0.022697397226304743
0.022697397226304743
0.022697397226304743
0.022697397226304743
0.022697397226304743
0.022697397226304743
0.022697397226304743
0.022697397226304743
0.022697397226304743
0.022697397226304743
0.022697397226304743
0.022697397226304743
0.022697397226304743
0.022697397226304743
0.022697397226304743
0.022697397226304743
0.022697397226304743
0.022697397226304743
0.022697397226304743
0.022697397226304743
0.022697397226304743
0.022697397226304743
0.022697397226304743
0.022697397226304743
0.022697397226304743
0.022697397226304743
0.022697397226304743
0.022697397226304743
0.022697397226304743
0.022697397226304743
0.022697397226304743
0.022697397226304743
0.022697397226304743
0.022697397226304743
0.022697397226304743
0.022697397226304743
0.022697397226304743
0.022697397226304743
0.022697397226304743
0.022697397226304743
0.022697397226304743
0.022697397226304743
0.022697397226304743
0.022697397226304743
0.022697397226304743
0.022697397226304743
0.022697397226304743
0.022697397226304743
0.022697397226304743
0.022697397226304743
0.022697397226304743
0.022697397226304743
0.022697397226304743
0.022697397226304743
0.022697397226304743
0.022697397226304743
0.022697397226304743
0.022697397226304743
0.022697397226304743
0.022697397226304743
0.022697397226304743
0.022697397226304743
0.022697397226304743
0.022697397226304743
0.022697397226304743
0.022697397226304743
0.022697397226304743
0.022697397226304743
0.022697397226304743
0.022697397226304743
0.022697397226304743
0.022697397226304743
0.022697397226304743
0.022697397226304743
0.022697397226304743
0.022697397226304743
0.022697397226304743
0.022697397226304743
0.022697397226304743
0.022697397226304743
0.022697397226304743
0.022697397226304743
0.022697397226304743
0.022697397226304743
0.022697397226304743
0.022697397226304743
0.022697397226304743
0.022697397226304743
0.022697397226304743
0.022697397226304743
0.022697397226304743
0.022697397226304743
0.022697397226304743
0.022697397226304743
0.022697397226304743
0.022697397226304743
0.022697397226304743
0.022697397226304743
0.022697397226304743
0.022697397226304743
0.022697397226304743
0.022697397226304743
0.022697397226304743
0.022697397226304743
0.022697397226304743
0.022697397226304743
0.022697397226304743
0.022697397226304743
0.022697397226304743
0.022697397226304743
0.022697397226304743
0.022697397226304743
0.022697397226304743
0.022697397226304743
0.022697397226304743
0.022697397226304743
0.022697397226304743
0.022697397226304743
0.022697397226304743
0.022697397226304743
0.022697397226304743
0.022697397226304743
0.022697397226304743
0.022697397226304743
0.022697397226304743
0.022697397226304743
0.022697397226304743
0.022697397226304743
0.022697397226304743
0.022697397226304743
0.022697397226304743
0.022697397226304743
0.022697397226304743
0.022697397226304743
0.022697397226304743
0.022697397226304743
0.022697397226304743
0.022697397226304743
0.022697397226304743
0.022697397226304743
0.022697397226304743
0.022697397226304743
0.022697397226304743
0.022697397226304743
0.022697397226304743
0.022697397226304743
0.022697397226304743
0.022697397226304743
0.022697397226304743
0.022697397226304743
0.022697397226304743
0.022697397226304743
0.022697397226304743
0.022697397226304743
0.022697397226304743
0.022697397226304743
0.022697397226304743
0.022697397226304743
0.022697397226304743
0.022697397226304743
0.022697397226304743
0.022697397226304743
0.022697397226304743
0.022697397226304743
0.022697397226304743
0.022697397226304743
0.022697397226304743
0.022697397226304743
0.022697397226304743
0.022697397226304743
0.022697397226304743
0.022697397226304743
0.022697397226304743
0.022697397226304743
0.022697397226304743
0.022697397226304743
0.022697397226304743
0.022697397226304743
0.022697397226304743
0.022697397226304743
0.022697397226304743
0.022697397226304743
0.022697397226304743
0.022697397226304743
0.022697397226304743
0.022697397226304743
0.022697397226304743
0.022697397226304743
0.022697397226304743
0.022697397226304743
0.022697397226304743
0.022697397226304743
0.022697397226304743
0.022697397226304743
0.022697397226304743
0.022697397226304743
0.022697397226304743
0.022697397226304743
0.022697397226304743
0.022697397226304743
0.022697397226304743
0.022697397226304743
0.022697397226304743
0.022697397226304743
0.022697397226304743
0.022697397226304743
0.022697397226304743
0.022697397226304743
0.022697397226304743
0.022697397226304743
0.022697397226304743
0.022697397226304743
0.022697397226304743
0.022697397226304743
0.022697397226304743
0.022697397226304743
0.022697397226304743
0.022697397226304743
0.022697397226304743
0.022697397226304743
0.022697397226304743
0.022697397226304743
0.022697397226304743
0.022697397226304743
0.022697397226304743
0.022697397226304743
0.022697397226304743
0.022697397226304743
0.022697397226304743
0.022697397226304743
0.022697397226304743
0.022697397226304743
0.022697397226304743
0.022697397226304743
0.022697397226304743
0.022697397226304743
0.022697397226304743
0.022697397226304743
0.022697397226304743
0.022697397226304743
0.022697397226304743
0.022697397226304743
0.022697397226304743
0.022697397226304743
0.022697397226304743
0.022697397226304743
0.022697397226304743
0.022697397226304743
0.022697397226304743
0.022697397226304743
0.022697397226304743
0.022697397226304743
2.0647632399709703
0.0013439564358617047
0.020700900523228892
0.021632979965898566
0.021632979965898566
2.0470414647566875
0.021632979965898566
0.021632979965898566
2.0470414647566875
-0.0011579441118761296
0.021632979965898566
0.021632979965898566
0.021632979965898566
0.021632979965898566
0.021632979965898566
0.021632979965898566
0.021632979965898566
0.021632979965898566
0.021632979965898566
0.021632979965898566
0.021632979965898566
0.021632979965898566
0.020700900523228892
0.021632979965898566
0.021632979965898566
0.021632979965898566
0.021632979965898566
0.021632979965898566
0.021632979965898566
0.021632979965898566
0.021632979965898566
0.021632979965898566
-0.0010221378288302906
0.021632979965898566
0.021632979965898566
0.021632979965898566
0.021632979965898566
0.021632979965898566
0.021632979965898566
0.021632979965898566
0.021632979965898566
0.021632979965898566
0.021632979965898566
0.021632979965898566
0.021632979965898566
0.021632979965898566
0.021632979965898566
0.021632979965898566
0.021632979965898566
0.021632979965898566
0.021632979965898566
0.021632979965898566
2.3032089452062805
0.03882479728886136
0.03882479728886136
0.03882479728886136
0.021632979965898566
0.021632979965898566
0.2647515537218262
0.021632979965898566
0.021632979965898566
0.2647515537218262
0.2647515537218262
0.2647515537218262
0.2647515537218262
0.2647515537218262
0.2647515537218262
0.2647515537218262
0.026414208530807955
0.026414208530807955
0.026414208530807955
0.026414208530807955
0.2647515537218262
0.026414208530807955
0.025482129088138267
0.2638194742791565
0.025482129088138267
0.2638194742791565
0.025482129088138267
0.025482129088138267
0.025482129088138267
0.025482129088138267
0.025482129088138267
0.44028187175013395
0.025482129088138267
0.0028270112934094286
0.025482129088138267
0.025482129088138267
0.025482129088138267
0.042673946411101046
0.042673946411101046
0.042673946411101046
2.3905430556000393
4.415951540390828
2.3905430556000393
0.042673946411101046
0.042673946411101046
0.042673946411101046
0.042673946411101046
0.042673946411101046
0.042673946411101046
0.042673946411101046
0.042673946411101046
0.042673946411101046
0.042673946411101046
0.042673946411101046
0.042673946411101046
0.042673946411101046
0.025482129088138267
0.042673946411101046
0.042673946411101046
0.042673946411101046
0.042673946411101046
0.042673946411101046
0.042673946411101046
0.042673946411101046
0.042673946411101046
0.042673946411101046
0.042673946411101046
0.042673946411101046
0.042673946411101046
0.042673946411101046
0.042673946411101046
0.042673946411101046
0.042673946411101046
0.042673946411101046
0.042673946411101046
2.0680824312018915
0.042673946411101046
0.042673946411101046
0.042673946411101046
0.042673946411101046
0.042673946411101046
0.042673946411101046
0.042673946411101046
0.042673946411101046
0.042673946411101046
0.042673946411101046
0.042673946411101046
0.042673946411101046
0.042673946411101046
0.042673946411101046
0.042673946411101046
0.042673946411101046
0.042673946411101046
0.042673946411101046
0.042673946411101046
0.042673946411101046
0.042673946411101046
0.042673946411101046
0.042673946411101046
0.042673946411101046
0.042673946411101046
0.042673946411101046
0.042673946411101046
0.042673946411101046
0.042673946411101046
0.042673946411101046
0.042673946411101046
0.042673946411101046
0.042673946411101046
0.042673946411101046
0.042673946411101046
0.042673946411101046
0.042673946411101046
0.042673946411101046
0.042673946411101046
0.042673946411101046
0.042673946411101046
0.042673946411101046
0.042673946411101046
0.042673946411101046
0.042673946411101046
0.042673946411101046
0.042673946411101046
0.042673946411101046
0.042673946411101046
0.042673946411101046
0.042673946411101046
0.042673946411101046
0.042673946411101046
0.042673946411101046
0.042673946411101046
0.042673946411101046
0.042673946411101046
0.042673946411101046
0.042673946411101046
2.0680824312018915
0.042673946411101046
0.042673946411101046
2.0680824312018915
0.042673946411101046
0.042673946411101046
0.042673946411101046
2.0680824312018915
0.042673946411101046
0.042673946411101046
0.042673946411101046
0.042673946411101046
0.042673946411101046
0.042673946411101046
0.030052946635238408
0.042673946411101046
0.042673946411101046
0.042673946411101046
0.042673946411101046
0.042673946411101046
0.030052946635238408
0.042673946411101046
0.042673946411101046
0.042673946411101046
0.042673946411101046
2.0680824312018915
0.042673946411101046
2.0680824312018915
2.0680824312018915
0.042673946411101046
0.042673946411101046
0.030052946635238408
0.030052946635238408
0.042673946411101046
0.042673946411101046
0.030052946635238408
0.030052946635238408
0.042673946411101046
0.042673946411101046
0.030052946635238408
0.026694789850269896
0.042673946411101046
0.042673946411101046
0.030052946635238408
0.030052946635238408
0.030052946635238408
0.030052946635238408
0.030052946635238408
2.0680824312018915
0.042673946411101046
0.042673946411101046
0.042673946411101046
0.042673946411101046
0.042673946411101046
0.042673946411101046
2.0680824312018915
0.030052946635238408
0.030052946635238408
0.030052946635238408
0.030052946635238408
0.030052946635238408
0.030052946635238408
0.030052946635238408
0.02001882861637223
0.042673946411101046
0.042673946411101046
2.0554614314260284
0.042673946411101046
0.02001882861637223
0.042673946411101046
0.030052946635238408
2.0680824312018915
0.030052946635238408
0.042673946411101046
0.042673946411101046
0.042673946411101046
0.042673946411101046
0.02001882861637223
0.042673946411101046
0.02001882861637223
0.36835153041269114
0.039315789626132525
0.039315789626132525
0.36835153041269114
2.3937600152034815
2.0680824312018915
2.0680824312018915
0.042673946411101046
0.042673946411101046
0.36835153041269114
0.36835153041269114
0.039315789626132525
0.039315789626132525
0.039315789626132525
0.016660671831403687
0.36835153041269114
2.064724274416923
0.039315789626132525
0.026694789850269896
0.039315789626132525
0.039315789626132525
0.039315789626132525
0.039315789626132525
0.039315789626132525
0.039315789626132525
0.039315789626132525
0.016660671831403687
0.039315789626132525
0.039315789626132525
0.039315789626132525
0.039315789626132525
2.064724274416923
0.016660671831403687
0.039315789626132525
0.039315789626132525
0.039315789626132525
0.039315789626132525
0.039315789626132525
2.064724274416923
0.039315789626132525
2.064724274416923
0.039315789626132525
0.016660671831403687
0.016660671831403687
0.039315789626132525
0.039315789626132525
2.064724274416923
0.016660671831403687
0.016660671831403687
2.064724274416923
0.016660671831403687
0.039315789626132525
0.36835153041269114
0.039315789626132525
0.36835153041269114
0.36835153041269114
0.042673946411101046
2.0680824312018915
2.0680824312018915
0.042673946411101046
0.042673946411101046
0.042673946411101046
0.042673946411101046
0.042673946411101046
0.042673946411101046
0.042673946411101046
0.042673946411101046
0.042673946411101046
0.36835153041269114
0.042673946411101046
0.042673946411101046
0.042673946411101046
0.042673946411101046
2.0680824312018915
0.042673946411101046
0.042673946411101046
0.3456964126179623
0.3456964126179623
0.042673946411101046
0.3456964126179623
2.0680824312018915
0.042673946411101046
0.042673946411101046
0.36835153041269114
0.36835153041269114
0.042673946411101046
0.042673946411101046
0.039315789626132525
0.36835153041269114
0.36835153041269114
2.0680824312018915
0.042673946411101046
0.042673946411101046
0.042673946411101046
0.042673946411101046
0.042673946411101046
0.042673946411101046
0.36835153041269114
0.36835153041269114
2.0680824312018915
0.042673946411101046
0.042673946411101046
0.042673946411101046
0.042673946411101046
0.36835153041269114
0.039315789626132525
0.039315789626132525
2.3937600152034815
2.3937600152034815
0.3456964126179623
0.36835153041269114
0.36835153041269114
2.3937600152034815
0.039315789626132525
0.36835153041269114
0.039315789626132525
0.36835153041269114
0.042673946411101046
0.042673946411101046
0.06352346530069894
0.042673946411101046
0.042673946411101046
2.3937600152034815
2.3937600152034815
0.039315789626132525
0.36835153041269114
0.36835153041269114
0.039315789626132525
0.039315789626132525
0.039315789626132525
0.039315789626132525
0.039315789626132525
0.016660671831403687
0.36835153041269114
0.039315789626132525
0.039315789626132525
0.039315789626132525
0.039315789626132525
0.36835153041269114
2.3937600152034815
0.039315789626132525
0.36835153041269114
0.36835153041269114
0.36835153041269114
2.064724274416923
0.36835153041269114
0.36835153041269114
0.042673946411101046
0.042673946411101046
0.042673946411101046
0.042673946411101046
0.042673946411101046
0.042673946411101046
2.0680824312018915
0.042673946411101046
0.042673946411101046
0.042673946411101046
0.042673946411101046
0.042673946411101046
0.042673946411101046
0.042673946411101046
0.042673946411101046
0.042673946411101046
0.042673946411101046
0.042673946411101046
0.042673946411101046
0.042673946411101046
0.042673946411101046
0.042673946411101046
0.042673946411101046
0.042673946411101046
0.042673946411101046
0.042673946411101046
0.042673946411101046
2.0680824312018915
0.06352346530069894
2.0680824312018915
0.02001882861637223
0.042673946411101046
0.042673946411101046
2.0680824312018915
0.042673946411101046
0.042673946411101046
0.042673946411101046
0.042673946411101046
0.042673946411101046
0.042673946411101046
2.0680824312018915
0.042673946411101046
0.042673946411101046
0.042673946411101046
0.042673946411101046
0.042673946411101046
2.0680824312018915
0.042673946411101046
0.042673946411101046
0.042673946411101046
0.042673946411101046
0.042673946411101046
2.0680824312018915
0.042673946411101046
0.042673946411101046
0.042673946411101046
0.042673946411101046
0.042673946411101046
2.0680824312018915
0.042673946411101046
0.042673946411101046
0.042673946411101046
0.042673946411101046
0.042673946411101046
0.042673946411101046
0.042673946411101046
0.042673946411101046
0.042673946411101046
0.02001882861637223
0.042673946411101046
0.02001882861637223
2.0680824312018915
0.042673946411101046
2.0680824312018915
0.042673946411101046
0.042673946411101046
0.042673946411101046
0.042673946411101046
0.042673946411101046
2.0680824312018915
0.02001882861637223
2.0680824312018915
2.0680824312018915
0.042673946411101046
0.042673946411101046
0.042673946411101046
0.042673946411101046
0.042673946411101046
0.042673946411101046
0.042673946411101046
0.02001882861637223
0.042673946411101046
2.0680824312018915
0.042673946411101046
0.042673946411101046
0.042673946411101046
0.042673946411101046
0.042673946411101046
0.042673946411101046
2.0680824312018915
2.0680824312018915
0.042673946411101046
0.042673946411101046
0.042673946411101046
0.042673946411101046
0.042673946411101046
2.0680824312018915
0.042673946411101046
0.042673946411101046
0.042673946411101046
0.02001882861637223
0.042673946411101046
0.042673946411101046
2.0680824312018915
0.02001882861637223
2.0680824312018915
0.1835361755177585
0.042673946411101046
0.042673946411101046
0.042673946411101046
0.042673946411101046
0.042673946411101046
0.042673946411101046
0.1835361755177585
0.042673946411101046
0.042673946411101046
0.042673946411101046
0.042673946411101046
0.042673946411101046
0.02001882861637223
0.042673946411101046
0.042673946411101046
2.208944660308549
0.042673946411101046
0.042673946411101046
0.042673946411101046
0.042673946411101046
0.042673946411101046
0.1835361755177585
0.042673946411101046
0.1835361755177585
0.1835361755177585
2.208944660308549
0.1835361755177585
0.1835361755177585
0.1835361755177585
0.1835361755177585
0.1835361755177585
0.042673946411101046
0.1835361755177585
0.1835361755177585
0.1835361755177585
0.1835361755177585
0.1835361755177585
0.1835361755177585
0.1835361755177585
0.16088105772302966
2.208944660308549
0.1835361755177585
0.1835361755177585
2.208944660308549
0.1835361755177585
0.042673946411101046
0.1835361755177585
0.1835361755177585
0.1835361755177585
0.1835361755177585
0.1835361755177585
0.1835361755177585
0.1835361755177585
0.1835361755177585
0.1835361755177585
0.1835361755177585
0.1835361755177585
2.208944660308549
2.208944660308549
2.208944660308549
0.037892717846191665
0.1835361755177585
0.5092137595193484
0.1835361755177585
0.1835361755177585
0.037892717846191665
0.5092137595193484
0.1835361755177585
0.037892717846191665
0.037892717846191665
0.1835361755177585
0.3635703018477818
0.1835361755177585
0.1835361755177585
0.037892717846191665
0.037892717846191665
0.1835361755177585
0.1835361755177585
2.208944660308549
0.037892717846191665
0.1835361755177585
0.16088105772302966
0.1835361755177585
0.037892717846191665
0.015237600051462845
2.208944660308549
0.037892717846191665
0.037892717846191665
0.1835361755177585
0.015237600051462845
0.037892717846191665
0.037892717846191665
0.037892717846191665
0.037892717846191665
0.037892717846191665
0.037892717846191665
0.037892717846191665
0.037892717846191665
0.037892717846191665
2.063301202636982
0.037892717846191665
0.03453456106122314
0.3635703018477818
0.3635703018477818
0.3635703018477818
2.063301202636982
0.037892717846191665
0.037892717846191665
0.037892717846191665
0.037892717846191665
2.063301202636982
0.037892717846191665
0.3635703018477818
2.0599430458520134
0.03453456106122314
0.03453456106122314
0.3635703018477818
0.3635703018477818
0.3635703018477818
2.0599430458520134
0.3635703018477818
0.3635703018477818
0.3635703018477818
0.03453456106122314
0.03453456106122314
0.03453456106122314
0.03453456106122314
0.03453456106122314
0.3635703018477818
0.03453456106122314
0.03453456106122314
0.03453456106122314
0.03453456106122314
2.0599430458520134
0.011879443266494287
0.0407607011652821
0.03453456106122314
0.03453456106122314
2.0599430458520134
0.03453456106122314
0.03453456106122314
0.03453456106122314
0.03453456106122314
0.011879443266494287
0.03453456106122314
0.03453456106122314
0.03453456106122314
0.03453456106122314
0.03453456106122314
0.03453456106122314
0.03453456106122314
0.03453456106122314
0.03453456106122314
0.03453456106122314
0.03453456106122314
0.03453456106122314
0.011879443266494287
0.03453456106122314
0.03453456106122314
0.03453456106122314
0.03453456106122314
0.03453456106122314
0.03453456106122314
0.03453456106122314
0.03453456106122314
0.03453456106122314
2.0599430458520134
0.03453456106122314
0.03453456106122314
0.03453456106122314
0.03453456106122314
2.0599430458520134
0.03453456106122314
2.0599430458520134
0.03453456106122314
0.03453456106122314
0.03453456106122314
0.03453456106122314
0.03453456106122314
0.03453456106122314
0.03453456106122314
0.03453456106122314
0.03453456106122314
0.03453456106122314
0.03453456106122314
0.03453456106122314
2.0599430458520134
0.03453456106122314
0.03453456106122314
0.03453456106122314
0.03453456106122314
2.0599430458520134
0.03453456106122314
0.03453456106122314
2.0599430458520134
0.03453456106122314
0.03453456106122314
0.03453456106122314
0.011879443266494287
0.03453456106122314
0.03453456106122314
0.03453456106122314
0.03453456106122314
0.03453456106122314
2.0599430458520134
2.0599430458520134
0.011879443266494287
0.03453456106122314
0.03453456106122314
0.03453456106122314
0.03453456106122314
0.03453456106122314
0.03453456106122314
0.011743636983448448
2.0599430458520134
2.0599430458520134
0.03453456106122314
0.03453456106122314
0.03453456106122314
0.03453456106122314
2.0599430458520134
2.0599430458520134
0.03453456106122314
0.011879443266494287
2.0599430458520134
2.0599430458520134
0.03453456106122314
0.03453456106122314
0.03453456106122314
0.03453456106122314
0.03453456106122314
0.03453456106122314
0.011879443266494287
0.03453456106122314
0.03453456106122314
0.03453456106122314
0.011879443266494287
0.03453456106122314
2.0599430458520134
0.03453456106122314
0.011743636983448448
0.03453456106122314
2.0599430458520134
0.03453456106122314
0.03453456106122314
0.011879443266494287
0.03453456106122314
0.03453456106122314
0.03453456106122314
0.03453456106122314
0.03453456106122314
0.03453456106122314
0.03453456106122314
0.03453456106122314
0.03453456106122314
2.0599430458520134
0.03453456106122314
0.03453456106122314
0.03453456106122314
0.011879443266494287
0.03453456106122314
2.0599430458520134
2.0599430458520134
0.03453456106122314
0.03453456106122314
2.0599430458520134
0.03453456106122314
0.03453456106122314
0.03453456106122314
0.03453456106122314
0.03453456106122314
0.03453456106122314
0.03453456106122314
0.03453456106122314
2.0599430458520134
0.03453456106122314
0.03453456106122314
0.011743636983448448
0.03453456106122314
0.03453456106122314
0.03453456106122314
0.03453456106122314
0.03453456106122314
0.03453456106122314
0.03453456106122314
0.03453456106122314
0.03453456106122314
0.03453456106122314
0.03453456106122314
0.03453456106122314
0.03453456106122314
0.03453456106122314
0.03453456106122314
0.03453456106122314
0.03453456106122314
0.03453456106122314
0.03453456106122314
0.03453456106122314
0.03453456106122314
0.03453456106122314
0.03453456106122314
0.03453456106122314
0.03453456106122314
0.03453456106122314
0.03453456106122314
0.03453456106122314
0.03453456106122314
0.03453456106122314
0.03453456106122314
0.03453456106122314
0.03453456106122314
0.03453456106122314
0.03453456106122314
0.03453456106122314
0.03453456106122314
0.03453456106122314
0.03453456106122314
0.03453456106122314
0.03453456106122314
0.03453456106122314
0.03453456106122314
0.03453456106122314
0.03453456106122314
0.03453456106122314
0.03453456106122314
0.03453456106122314
0.03453456106122314
0.03453456106122314
0.03453456106122314
0.03453456106122314
0.03453456106122314
0.03453456106122314
0.03453456106122314
0.03453456106122314
0.03453456106122314
0.03453456106122314
0.03453456106122314
0.03453456106122314
0.03453456106122314
0.03453456106122314
0.03453456106122314
0.03453456106122314
0.03453456106122314
0.03453456106122314
0.03453456106122314
0.03453456106122314
0.03453456106122314
0.03453456106122314
0.03453456106122314
0.03453456106122314
0.03453456106122314
0.03453456106122314
0.03453456106122314
0.03453456106122314
0.03453456106122314
0.03453456106122314
0.03453456106122314
0.03453456106122314
0.03453456106122314
0.03453456106122314
0.03453456106122314
0.03453456106122314
0.03453456106122314
0.03453456106122314
0.03453456106122314
0.03453456106122314
0.03453456106122314
0.03453456106122314
0.03453456106122314
0.03453456106122314
0.03453456106122314
0.03453456106122314
0.03453456106122314
0.03453456106122314
0.03453456106122314
0.03453456106122314
0.03453456106122314
0.03453456106122314
0.03453456106122314
0.03453456106122314
0.03453456106122314
0.03453456106122314
0.03453456106122314
0.03453456106122314
0.03453456106122314
0.03453456106122314
0.03453456106122314
0.03453456106122314
0.03453456106122314
0.03453456106122314
0.03453456106122314
0.03453456106122314
